{"trees": [{"children_left": [1, 2, 3, 4, 5, 6, 7, 8, -1, -1, -1, 12, 13, 14, -1, -1, -1, 18, -1, -1, -1, -1, 23, 24, 25, 26, 27, 28, -1, -1, 31, -1, -1, 34, 35, -1, -1, 38, -1, -1, 41, -1, -1, 44, 45, 46, 47, -1, -1, 50, -1, -1, 53, 54, -1, -1, -1, 58, 59, -1, -1, -1, 63, -1, -1, 66, 67, 68, 69, -1, 71, -1, -1, 74, -1, -1, 77, -1, 79, -1, -1, 82, 83, 84, 85, 86, -1, -1, -1, -1, 91, 92, 93, 94, -1, -1, -1, 98, 99, -1, -1, -1, 103, 104, -1, -1, -1, 108, 109, -1, -1, -1, 113, 114, 115, 116, -1, -1, 119, -1, 121, 122, 123, 124, -1, -1, -1, -1, 129, 130, -1, 132, -1, -1, 135, 136, -1, -1, 139, -1, -1, -1, 143, -1, 145, 146, 147, 148, -1, 150, -1, -1, 153, 154, -1, -1, 157, -1, -1, -1, 161, -1, 163, -1, -1], "children_right": [112, 65, 22, 21, 20, 11, 10, 9, -1, -1, -1, 17, 16, 15, -1, -1, -1, 19, -1, -1, -1, -1, 62, 43, 40, 33, 30, 29, -1, -1, 32, -1, -1, 37, 36, -1, -1, 39, -1, -1, 42, -1, -1, 57, 52, 49, 48, -1, -1, 51, -1, -1, 56, 55, -1, -1, -1, 61, 60, -1, -1, -1, 64, -1, -1, 81, 76, 73, 70, -1, 72, -1, -1, 75, -1, -1, 78, -1, 80, -1, -1, 107, 90, 89, 88, 87, -1, -1, -1, -1, 102, 97, 96, 95, -1, -1, -1, 101, 100, -1, -1, -1, 106, 105, -1, -1, -1, 111, 110, -1, -1, -1, 142, 141, 118, 117, -1, -1, 120, -1, 128, 127, 126, 125, -1, -1, -1, -1, 134, 131, -1, 133, -1, -1, 138, 137, -1, -1, 140, -1, -1, -1, 144, -1, 160, 159, 152, 149, -1, 151, -1, -1, 156, 155, -1, -1, 158, -1, -1, -1, 162, -1, 164, -1, -1], "feature": [12, 4, 11, 0, 9, 10, 5, 4, -2, -2, -2, 4, 1, 4, -2, -2, -2, 4, -2, -2, -2, -2, 2, 4, 3, 0, 10, 6, -2, -2, 8, -2, -2, 5, 9, -2, -2, 6, -2, -2, 10, -2, -2, 10, 6, 10, 6, -2, -2, 9, -2, -2, 4, 12, -2, -2, -2, 12, 8, -2, -2, -2, 7, -2, -2, 7, 3, 0, 10, -2, 8, -2, -2, 2, -2, -2, 12, -2, 11, -2, -2, 3, 7, 5, 10, 6, -2, -2, -2, -2, 5, 7, 2, 10, -2, -2, -2, 5, 5, -2, -2, -2, 6, 7, -2, -2, -2, 5, 4, -2, -2, -2, 11, 2, 7, 4, -2, -2, 6, -2, 10, 9, 0, 4, -2, -2, -2, -2, 6, 10, -2, 9, -2, -2, 7, 4, -2, -2, 7, -2, -2, -2, 4, -2, 12, 11, 5, 3, -2, 3, -2, -2, 3, 4, -2, -2, 8, -2, -2, -2, 10, -2, 5, -2, -2], "threshold": [1.4777836203575134, 1.6267173886299133, -0.8011318147182465, 0.5, 2.286596417427063, -0.1746959239244461, -1.2664971947669983, -0.9147869348526001, -2.0, -2.0, -2.0, 1.4339136481285095, 0.5, 0.6746910810470581, -2.0, -2.0, -2.0, 1.5086366534233093, -2.0, -2.0, -2.0, -2.0, 2.7904250621795654, 1.058453619480133, 2.386399984359741, 0.5, 0.040525578893721104, 0.991595983505249, -2.0, -2.0, 0.7983143329620361, -2.0, -2.0, -0.515912190079689, -0.31450986862182617, -2.0, -2.0, -0.6818771958351135, -2.0, -2.0, 1.4574004411697388, -2.0, -2.0, 1.1525033116340637, 1.3096049427986145, 0.3812929540872574, 0.946446567773819, -2.0, -2.0, -0.18574223667383194, -2.0, -2.0, 1.1359441876411438, -0.42917241156101227, -2.0, -2.0, -2.0, -0.04778118431568146, -0.7173206806182861, -2.0, -2.0, -2.0, -0.9189374148845673, -2.0, -2.0, -0.2492169290781021, 0.32904744148254395, 0.5, 1.134568214416504, -2.0, -0.9467832744121552, -2.0, -2.0, -0.47072871029376984, -2.0, -2.0, -0.8105636239051819, -2.0, -0.3939216211438179, -2.0, -2.0, -0.11181382834911346, 0.3212857097387314, 0.5098872482776642, -0.06708517111837864, 0.48611876368522644, -2.0, -2.0, -2.0, -2.0, 0.30973125994205475, 1.4126819968223572, -0.47072872519493103, -0.1388256847858429, -2.0, -2.0, -2.0, -0.8912047147750854, -1.9170041680335999, -2.0, -2.0, -2.0, -0.6514503955841064, 1.0654195547103882, -2.0, -2.0, -2.0, -0.3908147066831589, 2.557526111602783, -2.0, -2.0, -2.0, 0.013288557529449463, 1.7412942051887512, -1.6630712747573853, 0.0704495720565319, -2.0, -2.0, -0.7515643239021301, -2.0, -0.013279796577990055, 0.8959059119224548, 0.5, 0.0012616142630577087, -2.0, -2.0, -2.0, -2.0, 0.13473845645785332, 0.5247739553451538, -2.0, 0.07179301977157593, -2.0, -2.0, 0.1476544663310051, -0.033793628215789795, -2.0, -2.0, 0.6437437236309052, -2.0, -2.0, -2.0, -0.8188463449478149, -2.0, 3.003348469734192, 2.2529446482658386, 0.9101992547512054, 1.2107699513435364, -2.0, 1.3944621682167053, -2.0, -2.0, 0.40252429246902466, 1.5759795308113098, -2.0, -2.0, 0.20742351189255714, -2.0, -2.0, -2.0, -0.569268673658371, -2.0, -0.0655612051486969, -2.0, -2.0], "value": [[1726.0, 273.0], [1651.0, 202.0], [1608.0, 139.0], [301.0, 49.0], [301.0, 16.0], [301.0, 15.0], [124.0, 1.0], [8.0, 1.0], [0.0, 1.0], [8.0, 0.0], [116.0, 0.0], [177.0, 14.0], [170.0, 7.0], [134.0, 7.0], [114.0, 2.0], [20.0, 5.0], [36.0, 0.0], [7.0, 7.0], [0.0, 7.0], [7.0, 0.0], [0.0, 1.0], [0.0, 33.0], [1307.0, 90.0], [1305.0, 86.0], [1214.0, 61.0], [1196.0, 56.0], [1105.0, 28.0], [566.0, 6.0], [464.0, 2.0], [102.0, 4.0], [539.0, 22.0], [432.0, 10.0], [107.0, 12.0], [91.0, 28.0], [25.0, 17.0], [11.0, 0.0], [14.0, 17.0], [66.0, 11.0], [21.0, 0.0], [45.0, 11.0], [18.0, 5.0], [18.0, 0.0], [0.0, 5.0], [91.0, 25.0], [83.0, 15.0], [82.0, 8.0], [60.0, 1.0], [55.0, 0.0], [5.0, 1.0], [22.0, 7.0], [7.0, 7.0], [15.0, 0.0], [1.0, 7.0], [1.0, 1.0], [1.0, 0.0], [0.0, 1.0], [0.0, 6.0], [8.0, 10.0], [3.0, 10.0], [3.0, 0.0], [0.0, 10.0], [5.0, 0.0], [2.0, 4.0], [2.0, 0.0], [0.0, 4.0], [43.0, 63.0], [7.0, 28.0], [2.0, 27.0], [1.0, 26.0], [0.0, 22.0], [1.0, 4.0], [1.0, 0.0], [0.0, 4.0], [1.0, 1.0], [0.0, 1.0], [1.0, 0.0], [5.0, 1.0], [4.0, 0.0], [1.0, 1.0], [0.0, 1.0], [1.0, 0.0], [36.0, 35.0], [15.0, 33.0], [6.0, 5.0], [3.0, 5.0], [3.0, 1.0], [3.0, 0.0], [0.0, 1.0], [0.0, 4.0], [3.0, 0.0], [9.0, 28.0], [7.0, 6.0], [6.0, 2.0], [1.0, 2.0], [1.0, 0.0], [0.0, 2.0], [5.0, 0.0], [1.0, 4.0], [1.0, 1.0], [0.0, 1.0], [1.0, 0.0], [0.0, 3.0], [2.0, 22.0], [2.0, 2.0], [0.0, 2.0], [2.0, 0.0], [0.0, 20.0], [21.0, 2.0], [6.0, 2.0], [6.0, 0.0], [0.0, 2.0], [15.0, 0.0], [75.0, 71.0], [31.0, 51.0], [26.0, 51.0], [4.0, 1.0], [0.0, 1.0], [4.0, 0.0], [22.0, 50.0], [0.0, 17.0], [22.0, 33.0], [15.0, 8.0], [15.0, 5.0], [15.0, 4.0], [0.0, 3.0], [15.0, 1.0], [0.0, 1.0], [0.0, 3.0], [7.0, 25.0], [3.0, 2.0], [2.0, 0.0], [1.0, 2.0], [0.0, 2.0], [1.0, 0.0], [4.0, 23.0], [1.0, 16.0], [0.0, 12.0], [1.0, 4.0], [3.0, 7.0], [3.0, 1.0], [0.0, 6.0], [5.0, 0.0], [44.0, 20.0], [0.0, 8.0], [44.0, 12.0], [42.0, 7.0], [42.0, 3.0], [33.0, 1.0], [29.0, 0.0], [4.0, 1.0], [0.0, 1.0], [4.0, 0.0], [9.0, 2.0], [8.0, 1.0], [8.0, 0.0], [0.0, 1.0], [1.0, 1.0], [1.0, 0.0], [0.0, 1.0], [0.0, 4.0], [2.0, 5.0], [1.0, 0.0], [1.0, 5.0], [1.0, 0.0], [0.0, 5.0]]}, {"children_left": [1, 2, 3, 4, 5, 6, 7, 8, 9, -1, -1, 12, -1, -1, -1, 16, 17, -1, 19, -1, -1, -1, 23, 24, 25, 26, -1, -1, 29, -1, -1, -1, 33, 34, 35, -1, -1, -1, -1, 40, 41, 42, -1, -1, -1, -1, 47, 48, 49, 50, 51, 52, -1, -1, -1, -1, -1, 58, 59, -1, -1, 62, 63, -1, -1, -1, 67, -1, -1, 70, 71, 72, -1, -1, 75, 76, 77, -1, -1, -1, 81, 82, -1, -1, -1, 86, 87, 88, -1, 90, -1, -1, 93, 94, 95, 96, -1, -1, 99, -1, -1, 102, 103, -1, -1, -1, -1, 108, 109, -1, 111, 112, 113, -1, -1, 116, -1, -1, -1, 120, 121, 122, -1, 124, -1, -1, 127, -1, 129, -1, -1, -1, 133, -1, 135, 136, 137, 138, 139, -1, 141, 142, -1, -1, 145, -1, -1, -1, -1, -1, 151, 152, 153, -1, -1, 156, -1, 158, -1, 160, -1, -1, 163, -1, 165, -1, -1], "children_right": [132, 69, 46, 39, 22, 15, 14, 11, 10, -1, -1, 13, -1, -1, -1, 21, 18, -1, 20, -1, -1, -1, 32, 31, 28, 27, -1, -1, 30, -1, -1, -1, 38, 37, 36, -1, -1, -1, -1, 45, 44, 43, -1, -1, -1, -1, 66, 57, 56, 55, 54, 53, -1, -1, -1, -1, -1, 61, 60, -1, -1, 65, 64, -1, -1, -1, 68, -1, -1, 85, 74, 73, -1, -1, 80, 79, 78, -1, -1, -1, 84, 83, -1, -1, -1, 107, 92, 89, -1, 91, -1, -1, 106, 101, 98, 97, -1, -1, 100, -1, -1, 105, 104, -1, -1, -1, -1, 119, 110, -1, 118, 115, 114, -1, -1, 117, -1, -1, -1, 131, 126, 123, -1, 125, -1, -1, 128, -1, 130, -1, -1, -1, 134, -1, 150, 149, 148, 147, 140, -1, 144, 143, -1, -1, 146, -1, -1, -1, -1, -1, 162, 155, 154, -1, -1, 157, -1, 159, -1, 161, -1, -1, 164, -1, 166, -1, -1], "feature": [0, 7, 3, 5, 8, 12, 11, 9, 5, -2, -2, 2, -2, -2, -2, 7, 4, -2, 8, -2, -2, -2, 4, 11, 7, 5, -2, -2, 9, -2, -2, -2, 3, 11, 9, -2, -2, -2, -2, 7, 2, 11, -2, -2, -2, -2, 9, 2, 3, 5, 5, 11, -2, -2, -2, -2, -2, 5, 9, -2, -2, 6, 9, -2, -2, -2, 4, -2, -2, 6, 10, 12, -2, -2, 7, 12, 5, -2, -2, -2, 7, 9, -2, -2, -2, 3, 8, 4, -2, 11, -2, -2, 5, 4, 4, 6, -2, -2, 6, -2, -2, 8, 6, -2, -2, -2, -2, 4, 6, -2, 4, 7, 2, -2, -2, 12, -2, -2, -2, 5, 8, 9, -2, 7, -2, -2, 7, -2, 4, -2, -2, -2, 5, -2, 4, 10, 12, 6, 4, -2, 5, 2, -2, -2, 10, -2, -2, -2, -2, -2, 5, 7, 2, -2, -2, 7, -2, 4, -2, 12, -2, -2, 11, -2, 9, -2, -2], "threshold": [0.5, -0.025976765784434974, 0.7699086964130402, 1.910979151725769, 0.8180107474327087, 1.4777836203575134, 4.085390567779541, -1.8082144856452942, 0.00949727464467287, -2.0, -2.0, 2.7777849435806274, -2.0, -2.0, -2.0, -0.12519461661577225, -0.31884801387786865, -2.0, -1.679487943649292, -2.0, -2.0, -2.0, 0.6774586141109467, -0.3939216360449791, -1.340613305568695, 0.059536270797252655, -2.0, -2.0, 0.6898776590824127, -2.0, -2.0, -2.0, 0.03513991832733154, 0.013288557529449463, -0.1857422385364771, -2.0, -2.0, -2.0, -2.0, -0.32363031804561615, -0.9763339459896088, 0.420498751103878, -2.0, -2.0, -2.0, -2.0, 2.2865962982177734, -1.1280155181884766, 2.57009220123291, 0.08455577492713928, -0.11560022085905075, -0.19031653553247452, -2.0, -2.0, -2.0, -2.0, -2.0, -2.0421016216278076, 0.8186452984809875, -2.0, -2.0, -2.1492334604263306, -1.5249256491661072, -2.0, -2.0, -2.0, 0.9542104601860046, -2.0, -2.0, -0.8958461880683899, -1.3404790759086609, 1.4777836203575134, -2.0, -2.0, 2.0327935814857483, -0.8105636239051819, -0.7410877048969269, -2.0, -2.0, -2.0, 2.206424832344055, -2.0399962067604065, -2.0, -2.0, -2.0, -0.14855226874351501, -1.1063238382339478, 1.7521781921386719, -2.0, -1.004736952483654, -2.0, -2.0, 2.0861157178878784, 1.417308509349823, 0.8038419187068939, -0.8889756202697754, -2.0, -2.0, 0.987669974565506, -2.0, -2.0, -0.07718890439718962, -0.5552625060081482, -2.0, -2.0, -2.0, -2.0, -0.6684778332710266, -0.7388046979904175, -2.0, -0.6786253750324249, 0.1724589318037033, -0.5212892293930054, -2.0, -2.0, 1.4777836203575134, -2.0, -2.0, -2.0, 0.00949727464467287, -0.4927821308374405, 0.9474129676818848, -2.0, 0.6933526396751404, -2.0, -2.0, 1.7351400256156921, -2.0, 0.15716514736413956, -2.0, -2.0, -2.0, -2.6175501346588135, -2.0, 1.0547636151313782, 1.0090223252773285, 2.240566074848175, 2.4098767042160034, -2.090059757232666, -2.0, 0.359770268201828, 0.36351992189884186, -2.0, -2.0, -0.2823066711425781, -2.0, -2.0, -2.0, -2.0, -2.0, 0.6349847316741943, 0.668548196554184, -0.30640701204538345, -2.0, -2.0, 0.7925705015659332, -2.0, 1.0750587582588196, -2.0, 0.7150012105703354, -2.0, -2.0, -0.8011318147182465, -2.0, -0.6750592663884163, -2.0, -2.0], "value": [[1703.0, 296.0], [1581.0, 201.0], [827.0, 80.0], [594.0, 73.0], [581.0, 66.0], [467.0, 36.0], [458.0, 19.0], [458.0, 18.0], [15.0, 3.0], [2.0, 3.0], [13.0, 0.0], [443.0, 15.0], [443.0, 14.0], [0.0, 1.0], [0.0, 1.0], [9.0, 17.0], [5.0, 17.0], [0.0, 14.0], [5.0, 3.0], [1.0, 0.0], [4.0, 3.0], [4.0, 0.0], [114.0, 30.0], [107.0, 7.0], [26.0, 7.0], [3.0, 6.0], [1.0, 6.0], [2.0, 0.0], [23.0, 1.0], [23.0, 0.0], [0.0, 1.0], [81.0, 0.0], [7.0, 23.0], [4.0, 23.0], [4.0, 8.0], [3.0, 2.0], [1.0, 6.0], [0.0, 15.0], [3.0, 0.0], [13.0, 7.0], [13.0, 3.0], [4.0, 3.0], [4.0, 0.0], [0.0, 3.0], [9.0, 0.0], [0.0, 4.0], [233.0, 7.0], [231.0, 5.0], [27.0, 3.0], [27.0, 2.0], [12.0, 2.0], [12.0, 1.0], [8.0, 0.0], [4.0, 1.0], [0.0, 1.0], [15.0, 0.0], [0.0, 1.0], [204.0, 2.0], [4.0, 1.0], [4.0, 0.0], [0.0, 1.0], [200.0, 1.0], [2.0, 1.0], [2.0, 0.0], [0.0, 1.0], [198.0, 0.0], [2.0, 2.0], [0.0, 2.0], [2.0, 0.0], [754.0, 121.0], [147.0, 3.0], [12.0, 1.0], [12.0, 0.0], [0.0, 1.0], [135.0, 2.0], [130.0, 1.0], [23.0, 1.0], [0.0, 1.0], [23.0, 0.0], [107.0, 0.0], [5.0, 1.0], [1.0, 1.0], [1.0, 0.0], [0.0, 1.0], [4.0, 0.0], [607.0, 118.0], [431.0, 108.0], [62.0, 1.0], [61.0, 0.0], [1.0, 1.0], [1.0, 0.0], [0.0, 1.0], [369.0, 107.0], [369.0, 99.0], [363.0, 60.0], [329.0, 40.0], [0.0, 2.0], [329.0, 38.0], [34.0, 20.0], [33.0, 7.0], [1.0, 13.0], [6.0, 39.0], [6.0, 11.0], [4.0, 0.0], [2.0, 11.0], [0.0, 28.0], [0.0, 8.0], [176.0, 10.0], [38.0, 6.0], [0.0, 2.0], [38.0, 4.0], [38.0, 3.0], [7.0, 2.0], [0.0, 2.0], [7.0, 0.0], [31.0, 1.0], [31.0, 0.0], [0.0, 1.0], [0.0, 1.0], [138.0, 4.0], [72.0, 4.0], [21.0, 3.0], [19.0, 0.0], [2.0, 3.0], [2.0, 0.0], [0.0, 3.0], [51.0, 1.0], [44.0, 0.0], [7.0, 1.0], [2.0, 1.0], [5.0, 0.0], [66.0, 0.0], [122.0, 95.0], [0.0, 5.0], [122.0, 90.0], [105.0, 53.0], [105.0, 32.0], [105.0, 30.0], [105.0, 27.0], [0.0, 2.0], [105.0, 25.0], [69.0, 9.0], [50.0, 2.0], [19.0, 7.0], [36.0, 16.0], [11.0, 1.0], [25.0, 15.0], [0.0, 3.0], [0.0, 2.0], [0.0, 21.0], [17.0, 37.0], [7.0, 25.0], [1.0, 16.0], [1.0, 0.0], [0.0, 16.0], [6.0, 9.0], [3.0, 0.0], [3.0, 9.0], [2.0, 0.0], [1.0, 9.0], [0.0, 9.0], [1.0, 0.0], [10.0, 12.0], [0.0, 11.0], [10.0, 1.0], [0.0, 1.0], [10.0, 0.0]]}, {"children_left": [1, 2, 3, 4, -1, -1, 7, 8, 9, 10, 11, 12, -1, -1, -1, 16, 17, -1, -1, -1, 21, 22, -1, 24, -1, -1, 27, 28, -1, -1, 31, -1, -1, 34, 35, 36, 37, -1, -1, 40, -1, -1, -1, 44, 45, 46, -1, -1, -1, -1, 51, 52, 53, 54, -1, 56, -1, -1, 59, -1, -1, 62, 63, 64, -1, -1, 67, -1, -1, 70, -1, 72, -1, -1, -1, 76, 77, 78, 79, 80, -1, -1, 83, 84, -1, 86, -1, -1, 89, 90, -1, -1, -1, -1, 95, -1, 97, -1, -1, -1, 101, 102, 103, 104, 105, 106, -1, 108, -1, 110, -1, -1, 113, -1, 115, -1, -1, -1, -1, 120, 121, -1, 123, -1, 125, -1, -1, 128, -1, -1, 131, 132, 133, 134, 135, 136, -1, -1, -1, 140, 141, 142, -1, -1, 145, -1, -1, 148, -1, 150, -1, -1, 153, -1, 155, 156, 157, -1, -1, 160, -1, -1, 163, -1, -1, 166, 167, -1, -1, 170, -1, -1, 173, -1, 175, 176, -1, -1, -1], "children_right": [100, 75, 6, 5, -1, -1, 50, 33, 20, 15, 14, 13, -1, -1, -1, 19, 18, -1, -1, -1, 26, 23, -1, 25, -1, -1, 30, 29, -1, -1, 32, -1, -1, 43, 42, 39, 38, -1, -1, 41, -1, -1, -1, 49, 48, 47, -1, -1, -1, -1, 74, 61, 58, 55, -1, 57, -1, -1, 60, -1, -1, 69, 66, 65, -1, -1, 68, -1, -1, 71, -1, 73, -1, -1, -1, 99, 94, 93, 82, 81, -1, -1, 88, 85, -1, 87, -1, -1, 92, 91, -1, -1, -1, -1, 96, -1, 98, -1, -1, -1, 130, 119, 118, 117, 112, 107, -1, 109, -1, 111, -1, -1, 114, -1, 116, -1, -1, -1, -1, 127, 122, -1, 124, -1, 126, -1, -1, 129, -1, -1, 172, 165, 152, 139, 138, 137, -1, -1, -1, 147, 144, 143, -1, -1, 146, -1, -1, 149, -1, 151, -1, -1, 154, -1, 162, 159, 158, -1, -1, 161, -1, -1, 164, -1, -1, 169, 168, -1, -1, 171, -1, -1, 174, -1, 178, 177, -1, -1, -1], "feature": [11, 0, 5, 6, -2, -2, 3, 8, 4, 12, 8, 9, -2, -2, -2, 12, 7, -2, -2, -2, 10, 10, -2, 8, -2, -2, 8, 9, -2, -2, 10, -2, -2, 4, 5, 6, 4, -2, -2, 4, -2, -2, -2, 10, 10, 5, -2, -2, -2, -2, 4, 9, 9, 12, -2, 4, -2, -2, 5, -2, -2, 9, 8, 5, -2, -2, 5, -2, -2, 4, -2, 10, -2, -2, -2, 10, 8, 3, 6, 11, -2, -2, 12, 11, -2, 1, -2, -2, 10, 2, -2, -2, -2, -2, 9, -2, 9, -2, -2, -2, 6, 3, 12, 9, 12, 0, -2, 4, -2, 9, -2, -2, 7, -2, 11, -2, -2, -2, -2, 12, 8, -2, 8, -2, 2, -2, -2, 6, -2, -2, 4, 4, 0, 4, 2, 10, -2, -2, -2, 8, 5, 11, -2, -2, 6, -2, -2, 8, -2, 2, -2, -2, 6, -2, 1, 8, 5, -2, -2, 11, -2, -2, 10, -2, -2, 8, 6, -2, -2, 2, -2, -2, 1, -2, 6, 0, -2, -2, -2], "threshold": [0.013288557529449463, 0.5, -2.7926865816116333, -0.43355535715818405, -2.0, -2.0, -0.4424597769975662, -0.07127999514341354, 1.504024088382721, 1.4777836203575134, -0.45043495297431946, 0.22631418704986572, -2.0, -2.0, -2.0, 3.003348469734192, -0.7205017060041428, -2.0, -2.0, -2.0, -0.7486199140548706, -2.2372352480888367, -2.0, -0.9477680921554565, -2.0, -2.0, -0.9329957962036133, -0.18574224412441254, -2.0, -2.0, -0.2643715515732765, -2.0, -2.0, 0.9994132220745087, 2.4614081382751465, 1.1447113752365112, -0.8760417103767395, -2.0, -2.0, 0.3287512958049774, -2.0, -2.0, -2.0, 2.01338928937912, 1.0448925495147705, 2.1111351251602173, -2.0, -2.0, -2.0, -2.0, 2.521548271179199, -1.1386227011680603, -1.2158833146095276, 1.4777836203575134, -2.0, -0.3658958114683628, -2.0, -2.0, -0.015522222965955734, -2.0, -2.0, 1.5654975771903992, 1.6619998216629028, 1.5857256650924683, -2.0, -2.0, -0.7160682082176208, -2.0, -2.0, -0.24504752457141876, -2.0, 0.3633578270673752, -2.0, -2.0, -2.0, 1.0090223252773285, 0.8111169934272766, 2.092492461204529, -0.35209009051322937, -0.8011318147182465, -2.0, -2.0, -0.04778118431568146, -0.8011318147182465, -2.0, 0.5, -2.0, -2.0, -0.533398412168026, 0.3508797809481621, -2.0, -2.0, -2.0, -2.0, 0.4838494509458542, -2.0, 0.9731664955615997, -2.0, -2.0, -2.0, -0.45024101436138153, 1.3577237129211426, 2.240566074848175, -0.5462916195392609, 1.4777836203575134, 0.5, -2.0, 1.602732241153717, -2.0, -0.7008127868175507, -2.0, -2.0, 0.4949169345200062, -2.0, 1.0313140451908112, -2.0, -2.0, -2.0, -2.0, 1.4777836203575134, -1.520932137966156, -2.0, 1.3724632859230042, -2.0, -0.1168050467967987, -2.0, -2.0, -0.9154763519763947, -2.0, -2.0, 1.5805920958518982, 1.058453619480133, 0.5, -1.6269617080688477, -0.3316872715950012, 0.07639582455158234, -2.0, -2.0, -2.0, 0.9224014282226562, 0.9602382481098175, 0.420498751103878, -2.0, -2.0, 0.5636579692363739, -2.0, -2.0, 0.9391433298587799, -2.0, -0.028324133716523647, -2.0, -2.0, -0.41981422901153564, -2.0, 0.5, -1.491387665271759, -1.416614145040512, -2.0, -2.0, 0.420498751103878, -2.0, -2.0, 1.0269574224948883, -2.0, -2.0, 0.5718061923980713, 1.6020947098731995, -2.0, -2.0, -0.483368843793869, -2.0, -2.0, 0.5, -2.0, 0.3781527429819107, 0.5, -2.0, -2.0, -2.0], "value": [[1722.0, 277.0], [949.0, 194.0], [905.0, 125.0], [1.0, 4.0], [0.0, 4.0], [1.0, 0.0], [904.0, 121.0], [627.0, 106.0], [322.0, 31.0], [308.0, 14.0], [299.0, 7.0], [180.0, 7.0], [98.0, 0.0], [82.0, 7.0], [119.0, 0.0], [9.0, 7.0], [9.0, 5.0], [0.0, 2.0], [9.0, 3.0], [0.0, 2.0], [14.0, 17.0], [7.0, 1.0], [5.0, 0.0], [2.0, 1.0], [0.0, 1.0], [2.0, 0.0], [7.0, 16.0], [5.0, 3.0], [3.0, 0.0], [2.0, 3.0], [2.0, 13.0], [2.0, 3.0], [0.0, 10.0], [305.0, 75.0], [289.0, 37.0], [289.0, 36.0], [260.0, 24.0], [41.0, 13.0], [219.0, 11.0], [29.0, 12.0], [27.0, 3.0], [2.0, 9.0], [0.0, 1.0], [16.0, 38.0], [14.0, 38.0], [14.0, 26.0], [12.0, 26.0], [2.0, 0.0], [0.0, 12.0], [2.0, 0.0], [277.0, 15.0], [277.0, 12.0], [32.0, 5.0], [30.0, 1.0], [26.0, 0.0], [4.0, 1.0], [0.0, 1.0], [4.0, 0.0], [2.0, 4.0], [2.0, 0.0], [0.0, 4.0], [245.0, 7.0], [226.0, 4.0], [216.0, 3.0], [209.0, 2.0], [7.0, 1.0], [10.0, 1.0], [0.0, 1.0], [10.0, 0.0], [19.0, 3.0], [9.0, 0.0], [10.0, 3.0], [10.0, 0.0], [0.0, 3.0], [0.0, 3.0], [44.0, 69.0], [44.0, 43.0], [34.0, 42.0], [31.0, 42.0], [21.0, 7.0], [0.0, 7.0], [21.0, 0.0], [10.0, 35.0], [9.0, 15.0], [0.0, 11.0], [9.0, 4.0], [6.0, 4.0], [3.0, 0.0], [1.0, 20.0], [1.0, 2.0], [1.0, 0.0], [0.0, 2.0], [0.0, 18.0], [3.0, 0.0], [10.0, 1.0], [8.0, 0.0], [2.0, 1.0], [0.0, 1.0], [2.0, 0.0], [0.0, 26.0], [773.0, 83.0], [284.0, 19.0], [246.0, 7.0], [246.0, 4.0], [64.0, 4.0], [63.0, 2.0], [56.0, 0.0], [7.0, 2.0], [6.0, 0.0], [1.0, 2.0], [0.0, 2.0], [1.0, 0.0], [1.0, 2.0], [0.0, 1.0], [1.0, 1.0], [0.0, 1.0], [1.0, 0.0], [182.0, 0.0], [0.0, 3.0], [38.0, 12.0], [37.0, 4.0], [0.0, 2.0], [37.0, 2.0], [36.0, 0.0], [1.0, 2.0], [1.0, 0.0], [0.0, 2.0], [1.0, 8.0], [0.0, 8.0], [1.0, 0.0], [489.0, 64.0], [478.0, 36.0], [451.0, 26.0], [416.0, 15.0], [15.0, 4.0], [1.0, 4.0], [0.0, 4.0], [1.0, 0.0], [14.0, 0.0], [401.0, 11.0], [327.0, 5.0], [295.0, 1.0], [87.0, 1.0], [208.0, 0.0], [32.0, 4.0], [18.0, 4.0], [14.0, 0.0], [74.0, 6.0], [0.0, 3.0], [74.0, 3.0], [32.0, 3.0], [42.0, 0.0], [35.0, 11.0], [0.0, 6.0], [35.0, 5.0], [30.0, 3.0], [1.0, 1.0], [1.0, 0.0], [0.0, 1.0], [29.0, 2.0], [8.0, 2.0], [21.0, 0.0], [5.0, 2.0], [5.0, 0.0], [0.0, 2.0], [27.0, 10.0], [25.0, 1.0], [25.0, 0.0], [0.0, 1.0], [2.0, 9.0], [2.0, 0.0], [0.0, 9.0], [11.0, 28.0], [0.0, 25.0], [11.0, 3.0], [2.0, 3.0], [2.0, 0.0], [0.0, 3.0], [9.0, 0.0]]}, {"children_left": [1, 2, 3, 4, 5, 6, 7, 8, 9, -1, -1, -1, -1, 14, -1, -1, 17, 18, 19, 20, -1, -1, 23, -1, -1, 26, 27, -1, -1, 30, -1, -1, 33, 34, 35, -1, -1, 38, -1, -1, 41, -1, 43, -1, -1, 46, 47, 48, 49, -1, -1, 52, 53, -1, -1, -1, 57, -1, 59, 60, -1, -1, -1, 64, 65, -1, 67, -1, -1, 70, -1, 72, -1, -1, 75, 76, -1, 78, 79, 80, 81, -1, -1, 84, -1, -1, -1, 88, 89, -1, 91, -1, -1, 94, 95, -1, -1, 98, -1, -1, 101, 102, -1, -1, -1, 106, 107, 108, 109, 110, -1, 112, -1, 114, -1, -1, 117, -1, -1, 120, -1, -1, 123, -1, 125, -1, -1, 128, 129, -1, -1, 132, 133, 134, -1, -1, -1, -1, 139, 140, 141, -1, -1, 144, -1, -1, 147, 148, 149, -1, 151, 152, 153, 154, -1, -1, 157, -1, -1, 160, 161, -1, -1, -1, 165, -1, -1, 168, -1, -1, 171, -1, 173, -1, -1], "children_right": [138, 105, 74, 45, 16, 13, 12, 11, 10, -1, -1, -1, -1, 15, -1, -1, 32, 25, 22, 21, -1, -1, 24, -1, -1, 29, 28, -1, -1, 31, -1, -1, 40, 37, 36, -1, -1, 39, -1, -1, 42, -1, 44, -1, -1, 63, 56, 51, 50, -1, -1, 55, 54, -1, -1, -1, 58, -1, 62, 61, -1, -1, -1, 69, 66, -1, 68, -1, -1, 71, -1, 73, -1, -1, 100, 77, -1, 87, 86, 83, 82, -1, -1, 85, -1, -1, -1, 93, 90, -1, 92, -1, -1, 97, 96, -1, -1, 99, -1, -1, 104, 103, -1, -1, -1, 127, 122, 119, 116, 111, -1, 113, -1, 115, -1, -1, 118, -1, -1, 121, -1, -1, 124, -1, 126, -1, -1, 131, 130, -1, -1, 137, 136, 135, -1, -1, -1, -1, 146, 143, 142, -1, -1, 145, -1, -1, 170, 167, 150, -1, 164, 159, 156, 155, -1, -1, 158, -1, -1, 163, 162, -1, -1, -1, 166, -1, -1, 169, -1, -1, 172, -1, 174, -1, -1], "feature": [0, 5, 8, 4, 4, 9, 12, 6, 9, -2, -2, -2, -2, 6, -2, -2, 8, 2, 5, 5, -2, -2, 12, -2, -2, 12, 9, -2, -2, 3, -2, -2, 12, 4, 9, -2, -2, 4, -2, -2, 10, -2, 7, -2, -2, 6, 2, 9, 9, -2, -2, 2, 7, -2, -2, -2, 4, -2, 4, 9, -2, -2, -2, 4, 6, -2, 4, -2, -2, 3, -2, 9, -2, -2, 12, 5, -2, 8, 4, 8, 10, -2, -2, 2, -2, -2, -2, 9, 8, -2, 8, -2, -2, 11, 3, -2, -2, 7, -2, -2, 5, 4, -2, -2, -2, 4, 8, 12, 9, 5, -2, 10, -2, 10, -2, -2, 10, -2, -2, 8, -2, -2, 4, -2, 11, -2, -2, 8, 6, -2, -2, 5, 6, 4, -2, -2, -2, -2, 5, 9, 9, -2, -2, 10, -2, -2, 12, 2, 11, -2, 2, 12, 8, 10, -2, -2, 7, -2, -2, 1, 10, -2, -2, -2, 10, -2, -2, 6, -2, -2, 5, -2, 8, -2, -2], "threshold": [0.5, 1.1603941917419434, 1.0366403460502625, 1.504024088382721, -0.7404333353042603, 2.621392250061035, 1.4777836203575134, 0.1955920308828354, 0.27782124280929565, -2.0, -2.0, -2.0, -2.0, 0.6834020875394344, -2.0, -2.0, -0.23082052171230316, 1.5137717723846436, -1.5417116284370422, -1.5917506217956543, -2.0, -2.0, 1.4777836203575134, -2.0, -2.0, -0.8105636239051819, -0.6493057310581207, -2.0, -2.0, 2.3496614694595337, -2.0, -2.0, 2.240566074848175, 0.6341007947921753, -0.34026339650154114, -2.0, -2.0, 0.6368683278560638, -2.0, -2.0, -0.5513335466384888, -2.0, 1.3134641535580158, -2.0, -2.0, 0.4733591228723526, 0.5404817461967468, -2.3747920989990234, -2.580820322036743, -2.0, -2.0, -1.3808181285858154, 0.07324108481407166, -2.0, -2.0, -2.0, 1.7687833309173584, -2.0, 2.461585521697998, -0.7265662848949432, -2.0, -2.0, -2.0, 1.8702589869499207, 1.0112261772155762, -2.0, 1.646090030670166, -2.0, -2.0, 0.18209367990493774, -2.0, 0.35508181154727936, -2.0, -2.0, 1.4777836203575134, -2.7176281213760376, -2.0, 1.2789055705070496, 1.6110348105430603, 1.213907539844513, 1.2780491709709167, -2.0, -2.0, -0.9510536789894104, -2.0, -2.0, -2.0, -1.1128692030906677, 2.111076831817627, -2.0, 2.1494847536087036, -2.0, -2.0, -0.3939216360449791, 1.6883696913719177, -2.0, -2.0, -1.1917864680290222, -2.0, -2.0, 0.835140734910965, -0.22475238516926765, -2.0, -2.0, -2.0, 0.8407422006130219, 0.5137019455432892, 1.4777836203575134, 2.106321692466736, 1.4105892181396484, -2.0, -1.7350518107414246, -2.0, 0.7938008010387421, -2.0, -2.0, 0.5606442093849182, -2.0, -2.0, -1.7287288308143616, -2.0, -2.0, 0.46343718469142914, -2.0, -0.8011318147182465, -2.0, -2.0, -1.024583876132965, 0.7609412968158722, -2.0, -2.0, 2.3613301515579224, 0.2642976641654968, 2.057527720928192, -2.0, -2.0, -2.0, -2.0, -0.9912827014923096, -0.8038268983364105, -0.9583480656147003, -2.0, -2.0, 1.6726219952106476, -2.0, -2.0, 1.4777836203575134, 1.614892840385437, -0.8011318147182465, -2.0, 0.8817652761936188, -0.04778118431568146, 0.9755815863609314, 1.0269574522972107, -2.0, -2.0, 0.6189392507076263, -2.0, -2.0, 0.5, 0.9731520414352417, -2.0, -2.0, -2.0, 1.0090223550796509, -2.0, -2.0, -1.1333714127540588, -2.0, -2.0, 1.1353747248649597, -2.0, 0.03311071917414665, -2.0, -2.0], "value": [[1724.0, 275.0], [1615.0, 185.0], [1460.0, 143.0], [1257.0, 106.0], [1196.0, 64.0], [290.0, 29.0], [289.0, 26.0], [289.0, 6.0], [165.0, 6.0], [112.0, 0.0], [53.0, 6.0], [124.0, 0.0], [0.0, 20.0], [1.0, 3.0], [0.0, 3.0], [1.0, 0.0], [906.0, 35.0], [440.0, 8.0], [410.0, 4.0], [17.0, 1.0], [15.0, 0.0], [2.0, 1.0], [393.0, 3.0], [376.0, 1.0], [17.0, 2.0], [30.0, 4.0], [3.0, 2.0], [0.0, 2.0], [3.0, 0.0], [27.0, 2.0], [27.0, 1.0], [0.0, 1.0], [466.0, 27.0], [460.0, 22.0], [349.0, 9.0], [115.0, 6.0], [234.0, 3.0], [111.0, 13.0], [0.0, 3.0], [111.0, 10.0], [6.0, 5.0], [5.0, 0.0], [1.0, 5.0], [0.0, 5.0], [1.0, 0.0], [61.0, 42.0], [53.0, 8.0], [45.0, 2.0], [5.0, 1.0], [5.0, 0.0], [0.0, 1.0], [40.0, 1.0], [3.0, 1.0], [0.0, 1.0], [3.0, 0.0], [37.0, 0.0], [8.0, 6.0], [5.0, 0.0], [3.0, 6.0], [1.0, 6.0], [1.0, 0.0], [0.0, 6.0], [2.0, 0.0], [8.0, 34.0], [1.0, 25.0], [0.0, 24.0], [1.0, 1.0], [0.0, 1.0], [1.0, 0.0], [7.0, 9.0], [0.0, 8.0], [7.0, 1.0], [7.0, 0.0], [0.0, 1.0], [203.0, 37.0], [199.0, 31.0], [0.0, 2.0], [199.0, 29.0], [73.0, 19.0], [73.0, 9.0], [60.0, 4.0], [57.0, 2.0], [3.0, 2.0], [13.0, 5.0], [1.0, 5.0], [12.0, 0.0], [0.0, 10.0], [126.0, 10.0], [17.0, 5.0], [12.0, 0.0], [5.0, 5.0], [0.0, 3.0], [5.0, 2.0], [109.0, 5.0], [32.0, 4.0], [32.0, 3.0], [0.0, 1.0], [77.0, 1.0], [6.0, 1.0], [71.0, 0.0], [4.0, 6.0], [4.0, 1.0], [0.0, 1.0], [4.0, 0.0], [0.0, 5.0], [155.0, 42.0], [141.0, 20.0], [87.0, 18.0], [86.0, 8.0], [84.0, 5.0], [35.0, 0.0], [49.0, 5.0], [0.0, 2.0], [49.0, 3.0], [36.0, 1.0], [13.0, 2.0], [2.0, 3.0], [0.0, 3.0], [2.0, 0.0], [1.0, 10.0], [1.0, 0.0], [0.0, 10.0], [54.0, 2.0], [44.0, 0.0], [10.0, 2.0], [0.0, 2.0], [10.0, 0.0], [14.0, 22.0], [6.0, 1.0], [6.0, 0.0], [0.0, 1.0], [8.0, 21.0], [6.0, 21.0], [6.0, 2.0], [6.0, 0.0], [0.0, 2.0], [0.0, 19.0], [2.0, 0.0], [109.0, 90.0], [23.0, 5.0], [1.0, 3.0], [1.0, 0.0], [0.0, 3.0], [22.0, 2.0], [22.0, 0.0], [0.0, 2.0], [86.0, 85.0], [85.0, 70.0], [84.0, 63.0], [0.0, 32.0], [84.0, 31.0], [61.0, 30.0], [48.0, 18.0], [44.0, 12.0], [44.0, 6.0], [0.0, 6.0], [4.0, 6.0], [1.0, 6.0], [3.0, 0.0], [13.0, 12.0], [9.0, 12.0], [9.0, 1.0], [0.0, 11.0], [4.0, 0.0], [23.0, 1.0], [23.0, 0.0], [0.0, 1.0], [1.0, 7.0], [1.0, 0.0], [0.0, 7.0], [1.0, 15.0], [0.0, 14.0], [1.0, 1.0], [1.0, 0.0], [0.0, 1.0]]}, {"children_left": [1, 2, 3, 4, 5, 6, 7, 8, 9, -1, -1, 12, -1, -1, 15, 16, -1, -1, -1, 20, -1, 22, -1, -1, 25, 26, 27, 28, -1, -1, 31, -1, -1, 34, 35, -1, -1, 38, -1, -1, 41, -1, 43, -1, 45, -1, -1, 48, 49, 50, -1, -1, -1, 54, 55, 56, 57, -1, -1, -1, 61, 62, -1, -1, 65, -1, -1, -1, 69, 70, 71, -1, 73, -1, -1, 76, 77, -1, -1, 80, 81, -1, -1, -1, 85, -1, 87, 88, 89, -1, 91, -1, -1, 94, 95, -1, -1, -1, -1, 100, 101, 102, 103, 104, 105, 106, -1, -1, -1, 110, 111, -1, -1, 114, -1, -1, -1, 118, 119, 120, -1, -1, 123, 124, -1, -1, -1, -1, -1, 130, 131, 132, 133, -1, -1, 136, 137, 138, -1, -1, 141, -1, -1, -1, 145, -1, 147, 148, 149, -1, -1, -1, -1, 154, -1, 156, 157, 158, -1, -1, -1, -1, 163, -1, -1], "children_right": [162, 99, 68, 47, 24, 19, 14, 11, 10, -1, -1, 13, -1, -1, 18, 17, -1, -1, -1, 21, -1, 23, -1, -1, 40, 33, 30, 29, -1, -1, 32, -1, -1, 37, 36, -1, -1, 39, -1, -1, 42, -1, 44, -1, 46, -1, -1, 53, 52, 51, -1, -1, -1, 67, 60, 59, 58, -1, -1, -1, 64, 63, -1, -1, 66, -1, -1, -1, 84, 75, 72, -1, 74, -1, -1, 79, 78, -1, -1, 83, 82, -1, -1, -1, 86, -1, 98, 93, 90, -1, 92, -1, -1, 97, 96, -1, -1, -1, -1, 129, 128, 117, 116, 109, 108, 107, -1, -1, -1, 113, 112, -1, -1, 115, -1, -1, -1, 127, 122, 121, -1, -1, 126, 125, -1, -1, -1, -1, -1, 153, 144, 135, 134, -1, -1, 143, 140, 139, -1, -1, 142, -1, -1, -1, 146, -1, 152, 151, 150, -1, -1, -1, -1, 155, -1, 161, 160, 159, -1, -1, -1, -1, 164, -1, -1], "feature": [6, 10, 0, 12, 6, 11, 11, 5, 5, -2, -2, 12, -2, -2, 2, 7, -2, -2, -2, 6, -2, 9, -2, -2, 3, 8, 4, 7, -2, -2, 9, -2, -2, 7, 5, -2, -2, 8, -2, -2, 4, -2, 2, -2, 2, -2, -2, 2, 9, 2, -2, -2, -2, 8, 6, 2, 12, -2, -2, -2, 11, 6, -2, -2, 6, -2, -2, -2, 5, 4, 11, -2, 5, -2, -2, 2, 12, -2, -2, 4, 7, -2, -2, -2, 11, -2, 1, 4, 12, -2, 10, -2, -2, 11, 8, -2, -2, -2, -2, 10, 0, 12, 9, 10, 5, 5, -2, -2, -2, 10, 9, -2, -2, 7, -2, -2, -2, 9, 2, 2, -2, -2, 9, 11, -2, -2, -2, -2, -2, 10, 4, 10, 9, -2, -2, 3, 5, 4, -2, -2, 4, -2, -2, -2, 9, -2, 10, 1, 8, -2, -2, -2, -2, 7, -2, 0, 8, 12, -2, -2, -2, -2, 4, -2, -2], "threshold": [2.8250551223754883, 1.0448925495147705, 0.5, 1.4777836203575134, 0.4311542212963104, 3.6781803369522095, 0.013288557529449463, -2.7176281213760376, -2.917784094810486, -2.0, -2.0, 0.7150012105703354, -2.0, -2.0, 0.0727969128638506, -1.6134623289108276, -2.0, -2.0, -2.0, -0.6435983180999756, -2.0, -0.10848166048526764, -2.0, -2.0, -0.4424597769975662, 0.7254378199577332, 1.2254272103309631, -1.4894400238990784, -2.0, -2.0, 0.9474129378795624, -2.0, -2.0, 0.5197214037179947, -1.9920626878738403, -2.0, -2.0, 1.8264644742012024, -2.0, -2.0, 0.39517173171043396, -2.0, 0.8185646235942841, -2.0, 0.9449658989906311, -2.0, -2.0, -0.7867319881916046, 1.8745399117469788, -2.113945722579956, -2.0, -2.0, -2.0, 1.3685240149497986, 0.22601880878210068, 1.172488272190094, 3.003348469734192, -2.0, -2.0, -2.0, 0.013288557529449463, 1.8033040761947632, -2.0, -2.0, 0.6461047530174255, -2.0, -2.0, -2.0, -0.09058072045445442, 1.6313299536705017, -0.8011318147182465, -2.0, -2.3173160552978516, -2.0, -2.0, -0.10416492074728012, -0.04778118431568146, -2.0, -2.0, 1.8047611117362976, 1.1398329436779022, -2.0, -2.0, -2.0, -0.8011318147182465, -2.0, 0.5, 1.1138039827346802, 1.4777836203575134, -2.0, 0.21987683326005936, -2.0, -2.0, 0.013288557529449463, -1.3269230127334595, -2.0, -2.0, -2.0, -2.0, 1.511205792427063, 0.5, 1.4777836203575134, 0.5868635475635529, 1.2959843277931213, 2.1361546516418457, 0.184633769094944, -2.0, -2.0, -2.0, 1.3318545818328857, -0.8810874819755554, -2.0, -2.0, 0.09804554656147957, -2.0, -2.0, -2.0, 1.1276876330375671, -0.8625727891921997, -1.3934583067893982, -2.0, -2.0, -1.34465092420578, -0.19031653553247452, -2.0, -2.0, -2.0, -2.0, -2.0, 2.192740559577942, 0.7531041204929352, 1.5470760464668274, 1.0761805474758148, -2.0, -2.0, 2.2027077674865723, 1.4105892181396484, -0.8622041344642639, -2.0, -2.0, 0.2724784165620804, -2.0, -2.0, -2.0, -0.5977986752986908, -2.0, 2.121000051498413, 0.5, -0.5105088651180267, -2.0, -2.0, -2.0, -2.0, -0.3980437070131302, -2.0, 0.5, -0.8128480017185211, 0.7150012105703354, -2.0, -2.0, -2.0, -2.0, -0.18508461117744446, -2.0, -2.0], "value": [[1700.0, 299.0], [1699.0, 293.0], [1486.0, 197.0], [1365.0, 143.0], [1308.0, 95.0], [932.0, 38.0], [925.0, 36.0], [532.0, 29.0], [2.0, 2.0], [2.0, 0.0], [0.0, 2.0], [530.0, 27.0], [426.0, 26.0], [104.0, 1.0], [393.0, 7.0], [200.0, 7.0], [10.0, 2.0], [190.0, 5.0], [193.0, 0.0], [7.0, 2.0], [4.0, 0.0], [3.0, 2.0], [3.0, 0.0], [0.0, 2.0], [376.0, 57.0], [263.0, 56.0], [210.0, 25.0], [208.0, 7.0], [18.0, 3.0], [190.0, 4.0], [2.0, 18.0], [0.0, 17.0], [2.0, 1.0], [53.0, 31.0], [42.0, 12.0], [0.0, 4.0], [42.0, 8.0], [11.0, 19.0], [8.0, 19.0], [3.0, 0.0], [113.0, 1.0], [76.0, 0.0], [37.0, 1.0], [32.0, 0.0], [5.0, 1.0], [0.0, 1.0], [5.0, 0.0], [57.0, 48.0], [2.0, 15.0], [1.0, 15.0], [1.0, 0.0], [0.0, 15.0], [1.0, 0.0], [55.0, 33.0], [55.0, 27.0], [16.0, 17.0], [16.0, 12.0], [16.0, 5.0], [0.0, 7.0], [0.0, 5.0], [39.0, 10.0], [18.0, 8.0], [18.0, 5.0], [0.0, 3.0], [21.0, 2.0], [11.0, 2.0], [10.0, 0.0], [0.0, 6.0], [121.0, 54.0], [61.0, 13.0], [57.0, 5.0], [0.0, 4.0], [57.0, 1.0], [0.0, 1.0], [57.0, 0.0], [4.0, 8.0], [3.0, 1.0], [0.0, 1.0], [3.0, 0.0], [1.0, 7.0], [1.0, 2.0], [1.0, 0.0], [0.0, 2.0], [0.0, 5.0], [60.0, 41.0], [0.0, 30.0], [60.0, 11.0], [38.0, 11.0], [36.0, 4.0], [35.0, 0.0], [1.0, 4.0], [0.0, 4.0], [1.0, 0.0], [2.0, 7.0], [2.0, 3.0], [1.0, 0.0], [1.0, 3.0], [0.0, 4.0], [22.0, 0.0], [213.0, 96.0], [103.0, 68.0], [103.0, 36.0], [97.0, 17.0], [67.0, 17.0], [39.0, 6.0], [39.0, 3.0], [25.0, 0.0], [14.0, 3.0], [0.0, 3.0], [28.0, 11.0], [6.0, 8.0], [0.0, 6.0], [6.0, 2.0], [22.0, 3.0], [16.0, 0.0], [6.0, 3.0], [30.0, 0.0], [6.0, 19.0], [2.0, 19.0], [1.0, 1.0], [0.0, 1.0], [1.0, 0.0], [1.0, 18.0], [1.0, 1.0], [0.0, 1.0], [1.0, 0.0], [0.0, 17.0], [4.0, 0.0], [0.0, 32.0], [110.0, 28.0], [95.0, 14.0], [86.0, 6.0], [8.0, 2.0], [8.0, 0.0], [0.0, 2.0], [78.0, 4.0], [78.0, 3.0], [70.0, 1.0], [11.0, 1.0], [59.0, 0.0], [8.0, 2.0], [8.0, 0.0], [0.0, 2.0], [0.0, 1.0], [9.0, 8.0], [3.0, 0.0], [6.0, 8.0], [4.0, 8.0], [4.0, 6.0], [4.0, 1.0], [0.0, 5.0], [0.0, 2.0], [2.0, 0.0], [15.0, 14.0], [7.0, 0.0], [8.0, 14.0], [8.0, 4.0], [2.0, 4.0], [2.0, 0.0], [0.0, 4.0], [6.0, 0.0], [0.0, 10.0], [1.0, 6.0], [1.0, 0.0], [0.0, 6.0]]}, {"children_left": [1, 2, 3, 4, 5, 6, -1, 8, -1, -1, 11, 12, -1, -1, 15, -1, 17, -1, 19, -1, -1, 22, 23, 24, -1, -1, -1, -1, 29, -1, 31, -1, 33, -1, -1, 36, 37, 38, 39, 40, -1, -1, 43, 44, 45, -1, -1, 48, -1, -1, 51, 52, -1, -1, 55, -1, -1, 58, 59, -1, 61, -1, 63, -1, -1, 66, 67, -1, 69, -1, -1, 72, -1, -1, 75, 76, 77, 78, -1, 80, -1, -1, -1, 84, 85, -1, -1, -1, -1, 90, 91, 92, 93, -1, 95, -1, -1, 98, -1, 100, -1, -1, 103, 104, 105, -1, -1, -1, -1, 110, 111, -1, -1, 114, 115, -1, -1, 118, -1, -1, 121, 122, 123, -1, 125, -1, 127, 128, 129, 130, -1, -1, -1, 134, -1, 136, -1, -1, 139, 140, -1, -1, -1, 144, 145, 146, 147, -1, 149, -1, -1, 152, 153, -1, -1, 156, -1, -1, 159, -1, -1, 162, -1, 164, -1, -1, 167, -1, 169, 170, 171, -1, -1, 174, -1, -1, -1], "children_right": [120, 35, 28, 21, 10, 7, -1, 9, -1, -1, 14, 13, -1, -1, 16, -1, 18, -1, 20, -1, -1, 27, 26, 25, -1, -1, -1, -1, 30, -1, 32, -1, 34, -1, -1, 89, 74, 57, 42, 41, -1, -1, 50, 47, 46, -1, -1, 49, -1, -1, 54, 53, -1, -1, 56, -1, -1, 65, 60, -1, 62, -1, 64, -1, -1, 71, 68, -1, 70, -1, -1, 73, -1, -1, 88, 83, 82, 79, -1, 81, -1, -1, -1, 87, 86, -1, -1, -1, -1, 109, 102, 97, 94, -1, 96, -1, -1, 99, -1, 101, -1, -1, 108, 107, 106, -1, -1, -1, -1, 113, 112, -1, -1, 117, 116, -1, -1, 119, -1, -1, 166, 143, 124, -1, 126, -1, 138, 133, 132, 131, -1, -1, -1, 135, -1, 137, -1, -1, 142, 141, -1, -1, -1, 161, 158, 151, 148, -1, 150, -1, -1, 155, 154, -1, -1, 157, -1, -1, 160, -1, -1, 163, -1, 165, -1, -1, 168, -1, 176, 173, 172, -1, -1, 175, -1, -1, -1], "feature": [12, 6, 8, 0, 5, 9, -2, 7, -2, -2, 6, 6, -2, -2, 5, -2, 2, -2, 4, -2, -2, 10, 2, 11, -2, -2, -2, -2, 8, -2, 8, -2, 8, -2, -2, 4, 10, 0, 6, 12, -2, -2, 4, 2, 5, -2, -2, 8, -2, -2, 2, 6, -2, -2, 7, -2, -2, 10, 6, -2, 2, -2, 11, -2, -2, 7, 11, -2, 7, -2, -2, 5, -2, -2, 0, 4, 10, 6, -2, 4, -2, -2, -2, 7, 6, -2, -2, -2, -2, 3, 4, 9, 11, -2, 10, -2, -2, 6, -2, 6, -2, -2, 10, 4, 10, -2, -2, -2, -2, 4, 9, -2, -2, 10, 6, -2, -2, 8, -2, -2, 10, 6, 8, -2, 7, -2, 12, 9, 2, 9, -2, -2, -2, 4, -2, 11, -2, -2, 12, 4, -2, -2, -2, 5, 10, 4, 1, -2, 9, -2, -2, 7, 8, -2, -2, 7, -2, -2, 2, -2, -2, 4, -2, 0, -2, -2, 4, -2, 7, 5, 4, -2, -2, 4, -2, -2, -2], "threshold": [1.4777836203575134, -0.6543949246406555, 1.3724632859230042, 0.5, -1.5417116284370422, 0.0975465530063957, -2.0, -0.14999908208847046, -2.0, -2.0, -2.44466769695282, -2.5153363943099976, -2.0, -2.0, 1.6607841849327087, -2.0, 1.0587271451950073, -2.0, 0.6719235628843307, -2.0, -2.0, 1.0986979305744171, 2.6261032819747925, -0.8011318147182465, -2.0, -2.0, -2.0, -2.0, 1.408901572227478, -2.0, 1.8737356662750244, -2.0, 2.124864339828491, -2.0, -2.0, 1.447751224040985, 1.0448925495147705, 0.5, -0.6524319052696228, -0.8105636239051819, -2.0, -2.0, 1.0510736107826233, 3.13170850276947, 0.30973125994205475, -2.0, -2.0, 0.25272515416145325, -2.0, -2.0, 1.0966475009918213, 0.9670582711696625, -2.0, -2.0, 0.44530801475048065, -2.0, -2.0, -0.6230740547180176, -0.5847077667713165, -2.0, 0.4646409600973129, -2.0, -0.3939216211438179, -2.0, -2.0, 0.7181571125984192, -0.8011318147182465, -2.0, 0.5197214037179947, -2.0, -2.0, -1.6417896449565887, -2.0, -2.0, 0.5, 1.0160183310508728, 1.206308662891388, 0.14259053394198418, -2.0, -0.3151579946279526, -2.0, -2.0, -2.0, 0.5197213888168335, 0.7157918810844421, -2.0, -2.0, -2.0, -2.0, -0.11181382834911346, 1.6525475978851318, -0.5462916195392609, 0.013288557529449463, -2.0, 0.07639583945274353, -2.0, -2.0, 0.48611873388290405, -2.0, 1.0612831115722656, -2.0, -2.0, -0.6768794357776642, 1.8204436898231506, -0.9279711544513702, -2.0, -2.0, -2.0, -2.0, 1.6359424591064453, 0.07179302722215652, -2.0, -2.0, -1.1431926488876343, 0.595066249370575, -2.0, -2.0, 0.9155076742172241, -2.0, -2.0, 0.9014115631580353, -0.3069406747817993, -0.4317234009504318, -2.0, -2.4320095777511597, -2.0, 2.240566074848175, -0.7780733704566956, -0.2558464780449867, -1.3961580395698547, -2.0, -2.0, -2.0, -0.0688488520681858, -2.0, 0.420498751103878, -2.0, -2.0, 3.003348469734192, 0.07413959503173828, -2.0, -2.0, -2.0, 0.9602382481098175, 0.3992280662059784, -0.5134968161582947, 0.5, -2.0, -0.26300284266471863, -2.0, -2.0, 0.7677660286426544, 1.3114045858383179, -2.0, -2.0, 0.8421793878078461, -2.0, -2.0, -0.4833688288927078, -2.0, -2.0, -0.15187440067529678, -2.0, 0.5, -2.0, -2.0, -0.570692166686058, -2.0, 1.090224027633667, 0.009497273713350296, 0.1543976217508316, -2.0, -2.0, 0.031704314053058624, -2.0, -2.0, -2.0], "value": [[1726.0, 273.0], [1655.0, 196.0], [495.0, 16.0], [459.0, 11.0], [426.0, 4.0], [28.0, 2.0], [21.0, 0.0], [7.0, 2.0], [0.0, 2.0], [7.0, 0.0], [398.0, 2.0], [7.0, 1.0], [7.0, 0.0], [0.0, 1.0], [391.0, 1.0], [373.0, 0.0], [18.0, 1.0], [16.0, 0.0], [2.0, 1.0], [0.0, 1.0], [2.0, 0.0], [33.0, 7.0], [33.0, 5.0], [33.0, 4.0], [0.0, 4.0], [33.0, 0.0], [0.0, 1.0], [0.0, 2.0], [36.0, 5.0], [0.0, 2.0], [36.0, 3.0], [20.0, 0.0], [16.0, 3.0], [0.0, 3.0], [16.0, 0.0], [1160.0, 180.0], [1123.0, 105.0], [994.0, 71.0], [923.0, 46.0], [2.0, 2.0], [0.0, 2.0], [2.0, 0.0], [921.0, 44.0], [860.0, 33.0], [859.0, 30.0], [553.0, 27.0], [306.0, 3.0], [1.0, 3.0], [0.0, 3.0], [1.0, 0.0], [61.0, 11.0], [60.0, 7.0], [56.0, 2.0], [4.0, 5.0], [1.0, 4.0], [0.0, 4.0], [1.0, 0.0], [71.0, 25.0], [25.0, 2.0], [0.0, 1.0], [25.0, 1.0], [23.0, 0.0], [2.0, 1.0], [0.0, 1.0], [2.0, 0.0], [46.0, 23.0], [34.0, 22.0], [0.0, 19.0], [34.0, 3.0], [34.0, 0.0], [0.0, 3.0], [12.0, 1.0], [0.0, 1.0], [12.0, 0.0], [129.0, 34.0], [129.0, 7.0], [126.0, 3.0], [35.0, 3.0], [18.0, 0.0], [17.0, 3.0], [14.0, 0.0], [3.0, 3.0], [91.0, 0.0], [3.0, 4.0], [3.0, 1.0], [3.0, 0.0], [0.0, 1.0], [0.0, 3.0], [0.0, 27.0], [37.0, 75.0], [15.0, 70.0], [12.0, 17.0], [2.0, 12.0], [0.0, 10.0], [2.0, 2.0], [0.0, 2.0], [2.0, 0.0], [10.0, 5.0], [9.0, 0.0], [1.0, 5.0], [0.0, 5.0], [1.0, 0.0], [3.0, 53.0], [3.0, 14.0], [3.0, 8.0], [0.0, 8.0], [3.0, 0.0], [0.0, 6.0], [0.0, 39.0], [22.0, 5.0], [2.0, 3.0], [2.0, 0.0], [0.0, 3.0], [20.0, 2.0], [2.0, 1.0], [2.0, 0.0], [0.0, 1.0], [18.0, 1.0], [18.0, 0.0], [0.0, 1.0], [71.0, 77.0], [62.0, 55.0], [10.0, 31.0], [0.0, 12.0], [10.0, 19.0], [2.0, 0.0], [8.0, 19.0], [7.0, 10.0], [1.0, 6.0], [1.0, 1.0], [0.0, 1.0], [1.0, 0.0], [0.0, 5.0], [6.0, 4.0], [0.0, 3.0], [6.0, 1.0], [5.0, 0.0], [1.0, 1.0], [1.0, 9.0], [1.0, 4.0], [0.0, 4.0], [1.0, 0.0], [0.0, 5.0], [52.0, 24.0], [49.0, 16.0], [33.0, 15.0], [1.0, 11.0], [0.0, 7.0], [1.0, 4.0], [1.0, 0.0], [0.0, 4.0], [32.0, 4.0], [27.0, 1.0], [27.0, 0.0], [0.0, 1.0], [5.0, 3.0], [0.0, 3.0], [5.0, 0.0], [16.0, 1.0], [0.0, 1.0], [16.0, 0.0], [3.0, 8.0], [0.0, 7.0], [3.0, 1.0], [3.0, 0.0], [0.0, 1.0], [9.0, 22.0], [0.0, 13.0], [9.0, 9.0], [5.0, 9.0], [4.0, 2.0], [0.0, 2.0], [4.0, 0.0], [1.0, 7.0], [1.0, 0.0], [0.0, 7.0], [4.0, 0.0]]}, {"children_left": [1, 2, 3, 4, 5, 6, 7, -1, 9, -1, -1, -1, 13, 14, 15, -1, -1, 18, 19, -1, -1, 22, -1, -1, 25, 26, 27, -1, -1, -1, 31, -1, -1, 34, 35, -1, 37, -1, 39, 40, -1, -1, -1, 44, -1, -1, 47, 48, 49, 50, 51, -1, 53, -1, -1, 56, 57, -1, -1, 60, -1, -1, -1, 64, 65, 66, -1, 68, -1, -1, 71, -1, -1, 74, -1, -1, 77, 78, -1, 80, -1, 82, -1, -1, 85, -1, -1, 88, 89, 90, -1, -1, 93, -1, 95, 96, -1, 98, 99, -1, -1, -1, -1, 104, -1, 106, 107, 108, 109, -1, 111, -1, -1, -1, 115, 116, -1, 118, -1, -1, -1, 122, 123, 124, 125, -1, -1, -1, 129, -1, 131, -1, -1, -1, 135, 136, 137, 138, 139, -1, -1, 142, -1, 144, 145, 146, -1, -1, -1, -1, 151, -1, -1, -1, 155, 156, -1, 158, -1, -1, -1], "children_right": [134, 87, 46, 33, 12, 11, 8, -1, 10, -1, -1, -1, 24, 17, 16, -1, -1, 21, 20, -1, -1, 23, -1, -1, 30, 29, 28, -1, -1, -1, 32, -1, -1, 43, 36, -1, 38, -1, 42, 41, -1, -1, -1, 45, -1, -1, 76, 63, 62, 55, 52, -1, 54, -1, -1, 59, 58, -1, -1, 61, -1, -1, -1, 73, 70, 67, -1, 69, -1, -1, 72, -1, -1, 75, -1, -1, 84, 79, -1, 81, -1, 83, -1, -1, 86, -1, -1, 103, 92, 91, -1, -1, 94, -1, 102, 97, -1, 101, 100, -1, -1, -1, -1, 105, -1, 121, 114, 113, 110, -1, 112, -1, -1, -1, 120, 117, -1, 119, -1, -1, -1, 133, 128, 127, 126, -1, -1, -1, 130, -1, 132, -1, -1, -1, 154, 153, 150, 141, 140, -1, -1, 143, -1, 149, 148, 147, -1, -1, -1, -1, 152, -1, -1, -1, 160, 157, -1, 159, -1, -1, -1], "feature": [4, 0, 6, 12, 6, 9, 9, -2, 2, -2, -2, -2, 10, 6, 2, -2, -2, 5, 12, -2, -2, 10, -2, -2, 8, 9, 2, -2, -2, -2, 7, -2, -2, 9, 8, -2, 6, -2, 10, 8, -2, -2, -2, 10, -2, -2, 1, 8, 10, 7, 5, -2, 4, -2, -2, 12, 5, -2, -2, 10, -2, -2, -2, 2, 12, 10, -2, 4, -2, -2, 9, -2, -2, 9, -2, -2, 12, 2, -2, 9, -2, 5, -2, -2, 6, -2, -2, 7, 2, 10, -2, -2, 5, -2, 5, 10, -2, 10, 2, -2, -2, -2, -2, 11, -2, 5, 2, 8, 6, -2, 8, -2, -2, -2, 7, 12, -2, 11, -2, -2, -2, 10, 8, 8, 12, -2, -2, -2, 4, -2, 9, -2, -2, -2, 1, 11, 0, 10, 6, -2, -2, 9, -2, 8, 10, 6, -2, -2, -2, -2, 9, -2, -2, -2, 7, 2, -2, 9, -2, -2, -2], "threshold": [1.5732120871543884, 0.5, 0.8649812936782837, 1.4777836203575134, -0.6210235953330994, -0.8038268983364105, -0.8553339540958405, -2.0, -0.39488792419433594, -2.0, -2.0, -2.0, -0.03121492126956582, -0.6141530275344849, -0.1800057291984558, -2.0, -2.0, 1.5106672048568726, -0.04778118431568146, -2.0, -2.0, -1.7350518107414246, -2.0, -2.0, 2.0982741117477417, 2.389610528945923, -0.6856109499931335, -2.0, -2.0, -2.0, 0.12285000085830688, -2.0, -2.0, 1.2049482464790344, -1.0403409600257874, -2.0, -1.5318641662597656, -2.0, 0.4171631932258606, 1.1390613913536072, -2.0, -2.0, -2.0, 0.61444959230721, -2.0, -2.0, 0.5, -0.09393080696463585, 1.9595839977264404, 0.3708946257829666, 1.2854917645454407, -2.0, 0.48926735669374466, -2.0, -2.0, -0.8105636239051819, -1.1163801550865173, -2.0, -2.0, 0.8834764361381531, -2.0, -2.0, -2.0, 2.752504587173462, 2.240566074848175, -0.7306848168373108, -2.0, 0.6341007947921753, -2.0, -2.0, 0.8443988263607025, -2.0, -2.0, -0.10848166048526764, -2.0, -2.0, 1.4777836203575134, 0.831204742193222, -2.0, 1.4109764695167542, -2.0, 0.3097312534227967, -2.0, -2.0, 0.9886514544487, -2.0, -2.0, -0.5220660120248795, -1.709461510181427, -0.5872038006782532, -2.0, -2.0, -1.0413216948509216, -2.0, 1.7608621716499329, -1.3225439190864563, -2.0, 0.7399954497814178, 1.1851284503936768, -2.0, -2.0, -2.0, -2.0, -0.8011318147182465, -2.0, -0.3407756984233856, -0.5718497484922409, 0.6043051928281784, 0.08566300105303526, -2.0, -0.7980757355690002, -2.0, -2.0, -2.0, 1.6855310797691345, -0.04778118431568146, -2.0, 0.21689364314079285, -2.0, -2.0, -2.0, 1.0269574224948883, -0.5420230329036713, -0.6848216652870178, 1.4777836203575134, -2.0, -2.0, -2.0, 1.2088221311569214, -2.0, 0.6126171052455902, -2.0, -2.0, -2.0, 0.5, 0.8277089297771454, 0.5, -1.0535170435905457, -0.6396722793579102, -2.0, -2.0, -1.5249256491661072, -2.0, -0.10377899184823036, 0.004655327647924423, 0.13375696539878845, -2.0, -2.0, -2.0, -2.0, -0.6750592663884163, -2.0, -2.0, -2.0, -0.12519461661577225, -0.09152479469776154, -2.0, 0.27782124280929565, -2.0, -2.0, -2.0], "value": [[1742.0, 257.0], [1688.0, 196.0], [1561.0, 112.0], [1267.0, 62.0], [1219.0, 30.0], [457.0, 1.0], [110.0, 1.0], [105.0, 0.0], [5.0, 1.0], [5.0, 0.0], [0.0, 1.0], [347.0, 0.0], [762.0, 29.0], [363.0, 4.0], [1.0, 1.0], [0.0, 1.0], [1.0, 0.0], [362.0, 3.0], [349.0, 1.0], [169.0, 0.0], [180.0, 1.0], [13.0, 2.0], [0.0, 2.0], [13.0, 0.0], [399.0, 25.0], [398.0, 23.0], [398.0, 22.0], [99.0, 12.0], [299.0, 10.0], [0.0, 1.0], [1.0, 2.0], [1.0, 0.0], [0.0, 2.0], [48.0, 32.0], [47.0, 26.0], [0.0, 7.0], [47.0, 19.0], [0.0, 5.0], [47.0, 14.0], [29.0, 14.0], [29.0, 9.0], [0.0, 5.0], [18.0, 0.0], [1.0, 6.0], [0.0, 6.0], [1.0, 0.0], [294.0, 50.0], [207.0, 47.0], [109.0, 8.0], [109.0, 4.0], [81.0, 1.0], [74.0, 0.0], [7.0, 1.0], [5.0, 0.0], [2.0, 1.0], [28.0, 3.0], [5.0, 2.0], [0.0, 2.0], [5.0, 0.0], [23.0, 1.0], [22.0, 0.0], [1.0, 1.0], [0.0, 4.0], [98.0, 39.0], [97.0, 34.0], [96.0, 30.0], [27.0, 0.0], [69.0, 30.0], [63.0, 5.0], [6.0, 25.0], [1.0, 4.0], [0.0, 4.0], [1.0, 0.0], [1.0, 5.0], [0.0, 5.0], [1.0, 0.0], [87.0, 3.0], [82.0, 1.0], [69.0, 0.0], [13.0, 1.0], [10.0, 0.0], [3.0, 1.0], [0.0, 1.0], [3.0, 0.0], [5.0, 2.0], [0.0, 2.0], [5.0, 0.0], [127.0, 84.0], [32.0, 35.0], [11.0, 2.0], [11.0, 0.0], [0.0, 2.0], [21.0, 33.0], [8.0, 0.0], [13.0, 33.0], [12.0, 33.0], [3.0, 0.0], [9.0, 33.0], [9.0, 19.0], [5.0, 18.0], [4.0, 1.0], [0.0, 14.0], [1.0, 0.0], [95.0, 49.0], [0.0, 22.0], [95.0, 27.0], [27.0, 15.0], [6.0, 10.0], [4.0, 10.0], [3.0, 0.0], [1.0, 10.0], [1.0, 2.0], [0.0, 8.0], [2.0, 0.0], [21.0, 5.0], [21.0, 2.0], [17.0, 0.0], [4.0, 2.0], [2.0, 2.0], [2.0, 0.0], [0.0, 3.0], [68.0, 12.0], [68.0, 6.0], [22.0, 5.0], [22.0, 2.0], [22.0, 1.0], [0.0, 1.0], [0.0, 3.0], [46.0, 1.0], [45.0, 0.0], [1.0, 1.0], [0.0, 1.0], [1.0, 0.0], [0.0, 6.0], [54.0, 61.0], [28.0, 57.0], [28.0, 42.0], [21.0, 41.0], [8.0, 3.0], [8.0, 0.0], [0.0, 3.0], [13.0, 38.0], [4.0, 0.0], [9.0, 38.0], [9.0, 15.0], [9.0, 4.0], [9.0, 0.0], [0.0, 4.0], [0.0, 11.0], [0.0, 23.0], [7.0, 1.0], [0.0, 1.0], [7.0, 0.0], [0.0, 15.0], [26.0, 4.0], [8.0, 4.0], [7.0, 0.0], [1.0, 4.0], [1.0, 0.0], [0.0, 4.0], [18.0, 0.0]]}, {"children_left": [1, 2, 3, 4, 5, 6, 7, -1, 9, -1, -1, -1, 13, -1, -1, 16, -1, -1, -1, 20, 21, 22, 23, 24, -1, -1, 27, 28, 29, -1, -1, -1, 33, 34, -1, -1, 37, -1, -1, -1, 41, 42, 43, 44, 45, -1, -1, 48, -1, -1, 51, -1, 53, -1, -1, 56, 57, 58, -1, -1, -1, 62, 63, -1, -1, 66, -1, -1, 69, -1, 71, 72, 73, -1, -1, 76, -1, -1, -1, 80, 81, -1, 83, -1, 85, 86, 87, -1, -1, 90, -1, -1, -1, 94, 95, 96, 97, 98, -1, -1, -1, -1, -1, -1, 105, 106, 107, 108, 109, 110, 111, 112, -1, -1, 115, -1, -1, 118, -1, -1, 121, 122, 123, -1, -1, -1, 127, -1, -1, 130, 131, -1, -1, -1, 135, -1, -1, 138, -1, 140, -1, -1, 143, 144, 145, 146, -1, -1, -1, -1, 151, -1, -1], "children_right": [104, 19, 18, 15, 12, 11, 8, -1, 10, -1, -1, -1, 14, -1, -1, 17, -1, -1, -1, 79, 40, 39, 26, 25, -1, -1, 32, 31, 30, -1, -1, -1, 36, 35, -1, -1, 38, -1, -1, -1, 68, 55, 50, 47, 46, -1, -1, 49, -1, -1, 52, -1, 54, -1, -1, 61, 60, 59, -1, -1, -1, 65, 64, -1, -1, 67, -1, -1, 70, -1, 78, 75, 74, -1, -1, 77, -1, -1, -1, 93, 82, -1, 84, -1, 92, 89, 88, -1, -1, 91, -1, -1, -1, 103, 102, 101, 100, 99, -1, -1, -1, -1, -1, -1, 142, 137, 134, 129, 120, 117, 114, 113, -1, -1, 116, -1, -1, 119, -1, -1, 126, 125, 124, -1, -1, -1, 128, -1, -1, 133, 132, -1, -1, -1, 136, -1, -1, 139, -1, 141, -1, -1, 150, 149, 148, 147, -1, -1, -1, -1, 152, -1, -1], "feature": [8, 5, 10, 4, 6, 8, 2, -2, 4, -2, -2, -2, 11, -2, -2, 4, -2, -2, -2, 12, 6, 2, 10, 7, -2, -2, 11, 7, 9, -2, -2, -2, 9, 9, -2, -2, 9, -2, -2, -2, 10, 4, 0, 8, 10, -2, -2, 6, -2, -2, 11, -2, 6, -2, -2, 6, 3, 10, -2, -2, -2, 9, 3, -2, -2, 5, -2, -2, 6, -2, 12, 9, 8, -2, -2, 4, -2, -2, -2, 3, 8, -2, 8, -2, 8, 10, 9, -2, -2, 10, -2, -2, -2, 8, 8, 4, 11, 2, -2, -2, -2, -2, -2, -2, 4, 12, 4, 1, 12, 0, 10, 10, -2, -2, 2, -2, -2, 6, -2, -2, 5, 5, 11, -2, -2, -2, 5, -2, -2, 5, 5, -2, -2, -2, 9, -2, -2, 5, -2, 8, -2, -2, 3, 6, 9, 5, -2, -2, -2, -2, 5, -2, -2], "threshold": [1.0376251339912415, -1.9420236349105835, 1.744362473487854, 1.0842837691307068, 1.9878278374671936, -0.2869551479816437, -0.16736556589603424, -2.0, -0.0015059076249599457, -2.0, -2.0, -2.0, -0.3939216360449791, -2.0, -2.0, 1.9994099140167236, -2.0, -2.0, -2.0, 1.4777836203575134, -0.5994303822517395, 2.8157052993774414, -1.9861435294151306, 0.9662017226219177, -2.0, -2.0, -0.8011318147182465, 0.346090167760849, -0.7523198425769806, -2.0, -2.0, -2.0, -1.576432704925537, -1.627939760684967, -2.0, -2.0, -0.49478456377983093, -2.0, -2.0, -2.0, 1.7802327275276184, 1.2106671333312988, 0.5, 0.9233862459659576, -0.03121492126956582, -2.0, -2.0, 1.4254230856895447, -2.0, -2.0, -0.8011318147182465, -2.0, 0.07977394387125969, -2.0, -2.0, 0.44685837626457214, 0.32904744148254395, -0.2105661705136299, -2.0, -2.0, -2.0, 0.8443988263607025, 0.10861679911613464, -2.0, -2.0, 1.1103552281856537, -2.0, -2.0, -0.2745508775115013, -2.0, 0.7150012105703354, 0.9474129378795624, -1.851831078529358, -2.0, -2.0, -0.31423549354076385, -2.0, -2.0, -2.0, 0.7331702411174774, -1.124050498008728, -2.0, -0.7232295572757721, -2.0, 0.8347526490688324, 0.9014115631580353, -1.0098551213741302, -2.0, -2.0, 1.38565993309021, -2.0, -2.0, -2.0, 0.15719779580831528, 0.08530608005821705, 0.653473436832428, 1.0313140451908112, -0.07888465747237206, -2.0, -2.0, -2.0, -2.0, -2.0, -2.0, 1.218969702720642, 1.4777836203575134, 1.0575311183929443, 0.5, -0.8105636239051819, 0.5, -0.2643715441226959, -0.46165792644023895, -2.0, -2.0, -0.6729708015918732, -2.0, -2.0, -0.7682499885559082, -2.0, -2.0, 1.6607841849327087, -0.19065871834754944, 0.420498751103878, -2.0, -2.0, -2.0, 1.8359206914901733, -2.0, -2.0, -0.7911266982555389, -0.866185188293457, -2.0, -2.0, -2.0, -0.08272813260555267, -2.0, -2.0, -0.3908146917819977, -2.0, 1.069139301776886, -2.0, -2.0, 0.25557053089141846, -0.31577426195144653, 0.4065888673067093, -1.5917506515979767, -2.0, -2.0, -2.0, -2.0, 0.23467276245355606, -2.0, -2.0], "value": [[1744.0, 255.0], [1491.0, 195.0], [32.0, 15.0], [32.0, 12.0], [30.0, 4.0], [29.0, 2.0], [10.0, 2.0], [7.0, 0.0], [3.0, 2.0], [0.0, 2.0], [3.0, 0.0], [19.0, 0.0], [1.0, 2.0], [1.0, 0.0], [0.0, 2.0], [2.0, 8.0], [0.0, 8.0], [2.0, 0.0], [0.0, 3.0], [1459.0, 180.0], [1405.0, 134.0], [458.0, 9.0], [458.0, 8.0], [11.0, 1.0], [11.0, 0.0], [0.0, 1.0], [447.0, 7.0], [83.0, 5.0], [45.0, 5.0], [17.0, 5.0], [28.0, 0.0], [38.0, 0.0], [364.0, 2.0], [13.0, 1.0], [13.0, 0.0], [0.0, 1.0], [351.0, 1.0], [74.0, 1.0], [277.0, 0.0], [0.0, 1.0], [947.0, 125.0], [921.0, 108.0], [855.0, 52.0], [795.0, 22.0], [772.0, 17.0], [397.0, 0.0], [375.0, 17.0], [23.0, 5.0], [23.0, 1.0], [0.0, 4.0], [60.0, 30.0], [0.0, 25.0], [60.0, 5.0], [20.0, 5.0], [40.0, 0.0], [66.0, 56.0], [52.0, 16.0], [35.0, 16.0], [20.0, 3.0], [15.0, 13.0], [17.0, 0.0], [14.0, 40.0], [7.0, 36.0], [2.0, 32.0], [5.0, 4.0], [7.0, 4.0], [7.0, 2.0], [0.0, 2.0], [26.0, 17.0], [0.0, 7.0], [26.0, 10.0], [20.0, 10.0], [19.0, 7.0], [0.0, 3.0], [19.0, 4.0], [1.0, 3.0], [1.0, 0.0], [0.0, 3.0], [6.0, 0.0], [54.0, 46.0], [32.0, 36.0], [0.0, 8.0], [32.0, 28.0], [8.0, 0.0], [24.0, 28.0], [19.0, 28.0], [18.0, 18.0], [0.0, 3.0], [18.0, 15.0], [1.0, 10.0], [0.0, 8.0], [1.0, 2.0], [5.0, 0.0], [22.0, 10.0], [13.0, 10.0], [13.0, 7.0], [3.0, 7.0], [1.0, 7.0], [1.0, 1.0], [0.0, 6.0], [2.0, 0.0], [10.0, 0.0], [0.0, 3.0], [9.0, 0.0], [253.0, 60.0], [244.0, 30.0], [237.0, 18.0], [230.0, 14.0], [150.0, 13.0], [27.0, 6.0], [25.0, 3.0], [5.0, 2.0], [5.0, 0.0], [0.0, 2.0], [20.0, 1.0], [3.0, 1.0], [17.0, 0.0], [2.0, 3.0], [0.0, 3.0], [2.0, 0.0], [123.0, 7.0], [119.0, 5.0], [46.0, 5.0], [38.0, 2.0], [8.0, 3.0], [73.0, 0.0], [4.0, 2.0], [0.0, 2.0], [4.0, 0.0], [80.0, 1.0], [9.0, 1.0], [9.0, 0.0], [0.0, 1.0], [71.0, 0.0], [7.0, 4.0], [0.0, 4.0], [7.0, 0.0], [7.0, 12.0], [6.0, 0.0], [1.0, 12.0], [1.0, 0.0], [0.0, 12.0], [9.0, 30.0], [3.0, 28.0], [3.0, 5.0], [3.0, 2.0], [0.0, 2.0], [3.0, 0.0], [0.0, 3.0], [0.0, 23.0], [6.0, 2.0], [6.0, 0.0], [0.0, 2.0]]}, {"children_left": [1, 2, 3, 4, 5, 6, 7, -1, 9, -1, -1, 12, 13, 14, -1, -1, 17, -1, -1, -1, 21, -1, 23, -1, 25, 26, -1, -1, 29, -1, -1, 32, -1, -1, 35, 36, 37, 38, -1, -1, 41, -1, -1, -1, 45, -1, 47, -1, 49, 50, -1, 52, -1, -1, -1, 56, 57, 58, -1, 60, -1, -1, 63, -1, 65, -1, 67, 68, -1, -1, 71, -1, 73, -1, -1, 76, 77, -1, -1, 80, 81, -1, -1, -1, 85, 86, 87, 88, 89, 90, -1, -1, -1, 94, -1, -1, 97, 98, 99, 100, 101, -1, -1, -1, 105, 106, -1, -1, 109, -1, -1, 112, 113, -1, -1, -1, 117, -1, 119, -1, 121, -1, 123, -1, -1, 126, 127, 128, -1, 130, -1, -1, -1, 134, 135, -1, 137, -1, 139, -1, -1, -1, 143, 144, 145, 146, -1, -1, -1, 150, 151, 152, 153, 154, -1, -1, 157, -1, -1, 160, -1, 162, -1, -1, 165, -1, 167, -1, -1, 170, 171, 172, 173, -1, -1, -1, 177, -1, -1, 180, 181, -1, 183, -1, -1, -1, 187, -1, 189, 190, 191, -1, -1, -1, 195, -1, -1], "children_right": [84, 55, 34, 31, 20, 11, 8, -1, 10, -1, -1, 19, 16, 15, -1, -1, 18, -1, -1, -1, 22, -1, 24, -1, 28, 27, -1, -1, 30, -1, -1, 33, -1, -1, 44, 43, 40, 39, -1, -1, 42, -1, -1, -1, 46, -1, 48, -1, 54, 51, -1, 53, -1, -1, -1, 75, 62, 59, -1, 61, -1, -1, 64, -1, 66, -1, 70, 69, -1, -1, 72, -1, 74, -1, -1, 79, 78, -1, -1, 83, 82, -1, -1, -1, 142, 125, 96, 93, 92, 91, -1, -1, -1, 95, -1, -1, 116, 111, 104, 103, 102, -1, -1, -1, 108, 107, -1, -1, 110, -1, -1, 115, 114, -1, -1, -1, 118, -1, 120, -1, 122, -1, 124, -1, -1, 133, 132, 129, -1, 131, -1, -1, -1, 141, 136, -1, 138, -1, 140, -1, -1, -1, 186, 149, 148, 147, -1, -1, -1, 169, 164, 159, 156, 155, -1, -1, 158, -1, -1, 161, -1, 163, -1, -1, 166, -1, 168, -1, -1, 179, 176, 175, 174, -1, -1, -1, 178, -1, -1, 185, 182, -1, 184, -1, -1, -1, 188, -1, 194, 193, 192, -1, -1, -1, 196, -1, -1], "feature": [10, 12, 0, 8, 1, 7, 9, -2, 6, -2, -2, 11, 2, 8, -2, -2, 2, -2, -2, -2, 3, -2, 2, -2, 2, 8, -2, -2, 2, -2, -2, 2, -2, -2, 9, 4, 10, 7, -2, -2, 11, -2, -2, -2, 11, -2, 4, -2, 11, 9, -2, 12, -2, -2, -2, 11, 2, 8, -2, 5, -2, -2, 8, -2, 4, -2, 4, 3, -2, -2, 7, -2, 6, -2, -2, 6, 9, -2, -2, 2, 3, -2, -2, -2, 9, 4, 2, 10, 9, 6, -2, -2, -2, 5, -2, -2, 12, 6, 5, 3, 10, -2, -2, -2, 0, 5, -2, -2, 4, -2, -2, 7, 11, -2, -2, -2, 4, -2, 6, -2, 3, -2, 10, -2, -2, 6, 7, 8, -2, 7, -2, -2, -2, 3, 10, -2, 2, -2, 9, -2, -2, -2, 6, 5, 7, 10, -2, -2, -2, 6, 12, 4, 2, 11, -2, -2, 10, -2, -2, 10, -2, 0, -2, -2, 7, -2, 9, -2, -2, 4, 3, 10, 8, -2, -2, -2, 2, -2, -2, 4, 10, -2, 8, -2, -2, -2, 10, -2, 5, 10, 3, -2, -2, -2, 4, -2, -2], "threshold": [0.25574707984924316, 1.4777836203575134, 0.5, 3.001352310180664, 0.5, -2.506422996520996, -1.0356086194515228, -2.0, -0.11358336359262466, -2.0, -2.0, 4.085390567779541, 1.4632112979888916, 0.7362708151340485, -2.0, -2.0, 1.4884915351867676, -2.0, -2.0, -2.0, 1.5781543254852295, -2.0, 0.5025613605976105, -2.0, 0.5404817461967468, -1.0708703100681305, -2.0, -2.0, 1.159848153591156, -2.0, -2.0, -0.2558464929461479, -2.0, -2.0, -0.7780733704566956, 0.7235839068889618, -0.9817765653133392, -0.7205016762018204, -2.0, -2.0, -0.8011318147182465, -2.0, -2.0, -2.0, -0.8011318147182465, -2.0, 0.7863143384456635, -2.0, 1.4385242462158203, -0.10848166258074343, -2.0, -0.8105636239051819, -2.0, -2.0, -2.0, 0.013288557529449463, -0.7108911871910095, 0.041974082589149475, -2.0, 0.5849457383155823, -2.0, -2.0, -1.0029178857803345, -2.0, -0.10943912342190742, -2.0, 0.8398196995258331, 2.1292308568954468, -2.0, -2.0, -0.7453061826527119, -2.0, 0.24074144940823317, -2.0, -2.0, -0.5925598442554474, -0.6493057310581207, -2.0, -2.0, -0.23056622594594955, 0.03513991832733154, -2.0, -2.0, -2.0, 0.6898776590824127, 1.2641724944114685, -1.9243437051773071, 1.1525033116340637, -1.0871157050132751, 0.41446855664253235, -2.0, -2.0, -2.0, 0.9352187514305115, -2.0, -2.0, 1.4777836203575134, 1.9034180045127869, -0.2406977117061615, 0.7699086964130402, 2.4617674350738525, -2.0, -2.0, -2.0, 0.5, 1.4105892181396484, -2.0, -2.0, -0.38895848393440247, -2.0, -2.0, -0.2244124636054039, -0.5975267216563225, -2.0, -2.0, -2.0, -0.7256731986999512, -2.0, -0.6779511421918869, -2.0, 0.8801240026950836, -2.0, 0.6861900836229324, -2.0, -2.0, -0.43355536460876465, -0.4228481724858284, -0.43960195779800415, -2.0, -2.0103337168693542, -2.0, -2.0, -2.0, 0.40252429246902466, 0.7041251957416534, -2.0, -1.0016141831874847, -2.0, 0.3035747706890106, -2.0, -2.0, -2.0, 1.5088513493537903, -0.7911266982555389, -1.3158087730407715, 1.2780492007732391, -2.0, -2.0, -2.0, -0.06548941507935524, 1.4777836203575134, 1.0446160435676575, 2.0320171117782593, -0.3939216360449791, -2.0, -2.0, 1.0269574224948883, -2.0, -2.0, 0.435098335146904, -2.0, 0.5, -2.0, -2.0, -1.539048969745636, -2.0, 1.0246735513210297, -2.0, -2.0, 0.6424033641815186, 2.2027077078819275, 0.7220603227615356, -0.620808482170105, -2.0, -2.0, -2.0, -0.6729707941412926, -2.0, -2.0, 1.4957215785980225, 0.7579305768013, -2.0, -0.34702906012535095, -2.0, -2.0, -2.0, 0.3633578270673752, -2.0, -0.015522222965955734, 1.6367517113685608, 0.8433855772018433, -2.0, -2.0, -2.0, -1.0033476054668427, -2.0, -2.0], "value": [[1752.0, 247.0], [1097.0, 108.0], [1055.0, 77.0], [978.0, 55.0], [977.0, 53.0], [686.0, 51.0], [6.0, 4.0], [2.0, 0.0], [4.0, 4.0], [4.0, 0.0], [0.0, 4.0], [680.0, 47.0], [680.0, 46.0], [622.0, 34.0], [480.0, 18.0], [142.0, 16.0], [58.0, 12.0], [0.0, 2.0], [58.0, 10.0], [0.0, 1.0], [291.0, 2.0], [160.0, 0.0], [131.0, 2.0], [85.0, 0.0], [46.0, 2.0], [1.0, 1.0], [1.0, 0.0], [0.0, 1.0], [45.0, 1.0], [28.0, 0.0], [17.0, 1.0], [1.0, 2.0], [1.0, 0.0], [0.0, 2.0], [77.0, 22.0], [11.0, 9.0], [11.0, 2.0], [1.0, 1.0], [1.0, 0.0], [0.0, 1.0], [10.0, 1.0], [0.0, 1.0], [10.0, 0.0], [0.0, 7.0], [66.0, 13.0], [0.0, 10.0], [66.0, 3.0], [57.0, 0.0], [9.0, 3.0], [9.0, 2.0], [7.0, 0.0], [2.0, 2.0], [0.0, 2.0], [2.0, 0.0], [0.0, 1.0], [42.0, 31.0], [19.0, 26.0], [1.0, 9.0], [0.0, 8.0], [1.0, 1.0], [1.0, 0.0], [0.0, 1.0], [18.0, 17.0], [5.0, 0.0], [13.0, 17.0], [0.0, 13.0], [13.0, 4.0], [12.0, 1.0], [12.0, 0.0], [0.0, 1.0], [1.0, 3.0], [0.0, 2.0], [1.0, 1.0], [1.0, 0.0], [0.0, 1.0], [23.0, 5.0], [2.0, 4.0], [2.0, 0.0], [0.0, 4.0], [21.0, 1.0], [3.0, 1.0], [3.0, 0.0], [0.0, 1.0], [18.0, 0.0], [655.0, 139.0], [496.0, 88.0], [466.0, 57.0], [7.0, 5.0], [6.0, 1.0], [1.0, 1.0], [0.0, 1.0], [1.0, 0.0], [5.0, 0.0], [1.0, 4.0], [0.0, 4.0], [1.0, 0.0], [459.0, 52.0], [442.0, 36.0], [440.0, 31.0], [179.0, 24.0], [138.0, 24.0], [138.0, 20.0], [0.0, 4.0], [41.0, 0.0], [261.0, 7.0], [246.0, 4.0], [208.0, 1.0], [38.0, 3.0], [15.0, 3.0], [2.0, 3.0], [13.0, 0.0], [2.0, 5.0], [2.0, 1.0], [0.0, 1.0], [2.0, 0.0], [0.0, 4.0], [17.0, 16.0], [0.0, 13.0], [17.0, 3.0], [0.0, 2.0], [17.0, 1.0], [15.0, 0.0], [2.0, 1.0], [0.0, 1.0], [2.0, 0.0], [30.0, 31.0], [21.0, 4.0], [3.0, 4.0], [2.0, 0.0], [1.0, 4.0], [1.0, 0.0], [0.0, 4.0], [18.0, 0.0], [9.0, 27.0], [2.0, 27.0], [0.0, 16.0], [2.0, 11.0], [1.0, 0.0], [1.0, 11.0], [0.0, 11.0], [1.0, 0.0], [7.0, 0.0], [159.0, 51.0], [152.0, 40.0], [48.0, 2.0], [1.0, 2.0], [0.0, 2.0], [1.0, 0.0], [47.0, 0.0], [104.0, 38.0], [57.0, 10.0], [53.0, 5.0], [46.0, 2.0], [44.0, 1.0], [11.0, 1.0], [33.0, 0.0], [2.0, 1.0], [2.0, 0.0], [0.0, 1.0], [7.0, 3.0], [0.0, 2.0], [7.0, 1.0], [7.0, 0.0], [0.0, 1.0], [4.0, 5.0], [3.0, 0.0], [1.0, 5.0], [0.0, 5.0], [1.0, 0.0], [47.0, 28.0], [45.0, 9.0], [43.0, 4.0], [16.0, 4.0], [2.0, 4.0], [14.0, 0.0], [27.0, 0.0], [2.0, 5.0], [0.0, 5.0], [2.0, 0.0], [2.0, 19.0], [2.0, 6.0], [1.0, 0.0], [1.0, 6.0], [1.0, 1.0], [0.0, 5.0], [0.0, 13.0], [7.0, 11.0], [0.0, 5.0], [7.0, 6.0], [6.0, 2.0], [6.0, 1.0], [6.0, 0.0], [0.0, 1.0], [0.0, 1.0], [1.0, 4.0], [1.0, 0.0], [0.0, 4.0]]}, {"children_left": [1, 2, 3, 4, 5, 6, -1, -1, 9, 10, 11, 12, -1, -1, 15, -1, -1, 18, -1, 20, -1, -1, 23, 24, 25, -1, -1, -1, 29, 30, -1, -1, 33, -1, -1, 36, 37, 38, -1, 40, 41, -1, -1, 44, -1, -1, 47, -1, 49, 50, -1, -1, -1, 54, 55, 56, 57, -1, -1, -1, -1, 62, 63, -1, -1, -1, 67, 68, 69, 70, -1, 72, -1, 74, -1, -1, 77, -1, 79, -1, -1, -1, 83, 84, 85, 86, 87, -1, -1, -1, -1, 92, 93, -1, -1, 96, -1, 98, -1, -1, 101, 102, 103, -1, 105, -1, -1, 108, 109, -1, -1, -1, 113, -1, 115, -1, -1, 118, 119, 120, 121, -1, 123, 124, 125, -1, -1, 128, -1, -1, 131, -1, 133, -1, -1, 136, 137, 138, 139, -1, -1, -1, 143, -1, -1, 146, 147, -1, -1, -1, 151, -1, 153, -1, -1, -1, 157, 158, 159, 160, -1, -1, 163, 164, 165, -1, -1, -1, 169, -1, -1, 172, 173, 174, -1, -1, -1, 178, -1, -1, 181, 182, 183, 184, 185, -1, -1, 188, 189, -1, 191, -1, -1, 194, -1, -1, 197, -1, -1, 200, -1, 202, -1, 204, 205, 206, -1, -1, -1, -1, 211, 212, 213, -1, 215, -1, -1, 218, 219, 220, -1, 222, -1, -1, -1, 226, -1, -1, 229, 230, -1, -1, -1], "children_right": [156, 117, 66, 35, 8, 7, -1, -1, 22, 17, 14, 13, -1, -1, 16, -1, -1, 19, -1, 21, -1, -1, 28, 27, 26, -1, -1, -1, 32, 31, -1, -1, 34, -1, -1, 53, 46, 39, -1, 43, 42, -1, -1, 45, -1, -1, 48, -1, 52, 51, -1, -1, -1, 61, 60, 59, 58, -1, -1, -1, -1, 65, 64, -1, -1, -1, 82, 81, 76, 71, -1, 73, -1, 75, -1, -1, 78, -1, 80, -1, -1, -1, 100, 91, 90, 89, 88, -1, -1, -1, -1, 95, 94, -1, -1, 97, -1, 99, -1, -1, 112, 107, 104, -1, 106, -1, -1, 111, 110, -1, -1, -1, 114, -1, 116, -1, -1, 155, 150, 135, 122, -1, 130, 127, 126, -1, -1, 129, -1, -1, 132, -1, 134, -1, -1, 145, 142, 141, 140, -1, -1, -1, 144, -1, -1, 149, 148, -1, -1, -1, 152, -1, 154, -1, -1, -1, 180, 171, 162, 161, -1, -1, 168, 167, 166, -1, -1, -1, 170, -1, -1, 177, 176, 175, -1, -1, -1, 179, -1, -1, 210, 199, 196, 187, 186, -1, -1, 193, 190, -1, 192, -1, -1, 195, -1, -1, 198, -1, -1, 201, -1, 203, -1, 209, 208, 207, -1, -1, -1, -1, 228, 217, 214, -1, 216, -1, -1, 225, 224, 221, -1, 223, -1, -1, -1, 227, -1, -1, 232, 231, -1, -1, -1], "feature": [1, 12, 9, 4, 4, 0, -2, -2, 0, 6, 9, 9, -2, -2, 7, -2, -2, 6, -2, 6, -2, -2, 11, 5, 11, -2, -2, -2, 5, 6, -2, -2, 8, -2, -2, 8, 6, 9, -2, 5, 7, -2, -2, 2, -2, -2, 2, -2, 7, 9, -2, -2, -2, 11, 5, 6, 8, -2, -2, -2, -2, 8, 6, -2, -2, -2, 9, 5, 5, 12, -2, 7, -2, 10, -2, -2, 6, -2, 4, -2, -2, -2, 10, 0, 11, 11, 6, -2, -2, -2, -2, 2, 11, -2, -2, 5, -2, 4, -2, -2, 0, 6, 8, -2, 2, -2, -2, 10, 8, -2, -2, -2, 5, -2, 7, -2, -2, 5, 0, 12, 8, -2, 4, 6, 7, -2, -2, 8, -2, -2, 9, -2, 9, -2, -2, 12, 10, 9, 7, -2, -2, -2, 4, -2, -2, 4, 2, -2, -2, -2, 6, -2, 9, -2, -2, -2, 7, 0, 4, 12, -2, -2, 8, 10, 3, -2, -2, -2, 7, -2, -2, 7, 2, 6, -2, -2, -2, 6, -2, -2, 9, 12, 12, 4, 7, -2, -2, 6, 8, -2, 9, -2, -2, 11, -2, -2, 4, -2, -2, 5, -2, 5, -2, 6, 5, 6, -2, -2, -2, -2, 0, 3, 5, -2, 6, -2, -2, 12, 8, 3, -2, 9, -2, -2, -2, 11, -2, -2, 10, 8, -2, -2, -2], "threshold": [0.5, 1.4777836203575134, 0.5353564918041229, 1.0215533375740051, -2.254265785217285, 0.5, -2.0, -2.0, 0.5, 1.3204016089439392, -0.18574224412441254, -0.23724929243326187, -2.0, -2.0, 1.6111177206039429, -2.0, -2.0, 1.3262906074523926, -2.0, 1.5461487174034119, -2.0, -2.0, -0.3939216360449791, 0.9101992547512054, -0.8011318147182465, -2.0, -2.0, -2.0, -0.6910487115383148, -0.14204713329672813, -2.0, -2.0, -1.702138751745224, -2.0, -2.0, -0.007266819477081299, 0.45863647758960724, -2.168763816356659, -2.0, -0.6660292148590088, 0.346090167760849, -2.0, -2.0, 1.387370526790619, -2.0, -2.0, -1.5072194337844849, -2.0, 0.346090167760849, -0.26300282031297684, -2.0, -2.0, -2.0, -0.8011318147182465, 0.9352187514305115, 0.1003856360912323, 0.33348023891448975, -2.0, -2.0, -2.0, -2.0, 0.9617941677570343, -0.04782224912196398, -2.0, -2.0, -2.0, 0.5868635475635529, 0.7350627183914185, 0.15961426869034767, -0.8105636239051819, -2.0, -1.3406132459640503, -2.0, 0.21987684071063995, -2.0, -2.0, 0.03953206539154053, -2.0, 0.3619615063071251, -2.0, -2.0, -2.0, 0.6503198444843292, 0.5, 2.863759994506836, 0.420498751103878, 0.5067304372787476, -2.0, -2.0, -2.0, -2.0, -0.93841353058815, -0.19031652808189392, -2.0, -2.0, 0.2847117707133293, -2.0, 0.7042112648487091, -2.0, -2.0, 0.5, 0.23387088626623154, 0.9824753105640411, -2.0, 0.2497587502002716, -2.0, -2.0, 1.9595839381217957, 0.7372556328773499, -2.0, -2.0, -2.0, -1.1163801848888397, -2.0, 0.1476544663310051, -2.0, -2.0, 1.6607841849327087, 0.5, 2.240566074848175, -0.8364836573600769, -2.0, -0.04486369341611862, 0.22601880878210068, 0.5693303197622299, -2.0, -2.0, -0.24165351688861847, -2.0, -2.0, 0.8443988263607025, -2.0, 0.9731664955615997, -2.0, -2.0, 3.003348469734192, 0.345422700047493, 0.20056066289544106, -1.6630712747573853, -2.0, -2.0, -2.0, -0.9959674775600433, -2.0, -2.0, 1.1995970606803894, 0.7932843565940857, -2.0, -2.0, -2.0, 1.1329332739114761, -2.0, 0.2520677447319031, -2.0, -2.0, -2.0, -0.9189373850822449, 0.5, -1.2275165915489197, 1.4777836203575134, -2.0, -2.0, 1.425643503665924, -1.4480897784233093, 1.6516311764717102, -2.0, -2.0, -2.0, -1.2413954436779022, -2.0, -2.0, -1.2661998271942139, 0.9828863441944122, 0.8747963905334473, -2.0, -2.0, -2.0, 0.8797039538621902, -2.0, -2.0, 0.6898776590824127, 1.4777836203575134, -0.8105636239051819, -1.3243796825408936, -0.12519462406635284, -2.0, -2.0, -0.7702130079269409, -0.051583632826805115, -2.0, -0.5720451585948467, -2.0, -2.0, 3.4745752811431885, -2.0, -2.0, 2.557526111602783, -2.0, -2.0, -0.040541715919971466, -2.0, 0.4348287582397461, -2.0, 0.4134870767593384, 1.1353747248649597, 0.03658754378557205, -2.0, -2.0, -2.0, -2.0, 0.5, 1.7985849976539612, 1.0603162348270416, -2.0, -0.22056785225868225, -2.0, -2.0, 1.0963924378156662, -0.3755887821316719, 1.9822772145271301, -2.0, 0.8186452984809875, -2.0, -2.0, -2.0, 0.6241038367152214, -2.0, -2.0, 0.8834764659404755, -1.241243839263916, -2.0, -2.0, -2.0], "value": [[1732.0, 267.0], [1210.0, 228.0], [1142.0, 172.0], [802.0, 109.0], [745.0, 41.0], [14.0, 6.0], [14.0, 0.0], [0.0, 6.0], [731.0, 35.0], [699.0, 12.0], [629.0, 6.0], [332.0, 5.0], [311.0, 3.0], [21.0, 2.0], [297.0, 1.0], [282.0, 0.0], [15.0, 1.0], [70.0, 6.0], [0.0, 2.0], [70.0, 4.0], [29.0, 4.0], [41.0, 0.0], [32.0, 23.0], [5.0, 16.0], [1.0, 16.0], [0.0, 9.0], [1.0, 7.0], [4.0, 0.0], [27.0, 7.0], [6.0, 5.0], [4.0, 0.0], [2.0, 5.0], [21.0, 2.0], [0.0, 1.0], [21.0, 1.0], [57.0, 68.0], [43.0, 27.0], [40.0, 6.0], [0.0, 1.0], [40.0, 5.0], [5.0, 4.0], [2.0, 4.0], [3.0, 0.0], [35.0, 1.0], [31.0, 0.0], [4.0, 1.0], [3.0, 21.0], [1.0, 0.0], [2.0, 21.0], [2.0, 11.0], [0.0, 7.0], [2.0, 4.0], [0.0, 10.0], [14.0, 41.0], [8.0, 9.0], [8.0, 4.0], [8.0, 1.0], [0.0, 1.0], [8.0, 0.0], [0.0, 3.0], [0.0, 5.0], [6.0, 32.0], [6.0, 13.0], [6.0, 0.0], [0.0, 13.0], [0.0, 19.0], [340.0, 63.0], [13.0, 11.0], [6.0, 11.0], [5.0, 3.0], [2.0, 0.0], [3.0, 3.0], [2.0, 0.0], [1.0, 3.0], [0.0, 3.0], [1.0, 0.0], [1.0, 8.0], [0.0, 7.0], [1.0, 1.0], [0.0, 1.0], [1.0, 0.0], [7.0, 0.0], [327.0, 52.0], [249.0, 25.0], [223.0, 19.0], [223.0, 17.0], [169.0, 17.0], [110.0, 4.0], [59.0, 13.0], [54.0, 0.0], [0.0, 2.0], [26.0, 6.0], [2.0, 4.0], [0.0, 4.0], [2.0, 0.0], [24.0, 2.0], [16.0, 0.0], [8.0, 2.0], [8.0, 1.0], [0.0, 1.0], [78.0, 27.0], [76.0, 19.0], [43.0, 1.0], [36.0, 0.0], [7.0, 1.0], [6.0, 0.0], [1.0, 1.0], [33.0, 18.0], [33.0, 14.0], [31.0, 2.0], [2.0, 12.0], [0.0, 4.0], [2.0, 8.0], [1.0, 0.0], [1.0, 8.0], [0.0, 8.0], [1.0, 0.0], [68.0, 56.0], [68.0, 49.0], [67.0, 41.0], [54.0, 22.0], [17.0, 0.0], [37.0, 22.0], [12.0, 20.0], [3.0, 18.0], [1.0, 15.0], [2.0, 3.0], [9.0, 2.0], [0.0, 1.0], [9.0, 1.0], [25.0, 2.0], [22.0, 0.0], [3.0, 2.0], [0.0, 2.0], [3.0, 0.0], [13.0, 19.0], [11.0, 12.0], [2.0, 10.0], [2.0, 5.0], [1.0, 0.0], [1.0, 5.0], [0.0, 5.0], [9.0, 2.0], [0.0, 2.0], [9.0, 0.0], [2.0, 7.0], [1.0, 7.0], [0.0, 7.0], [1.0, 0.0], [1.0, 0.0], [1.0, 8.0], [0.0, 5.0], [1.0, 3.0], [1.0, 0.0], [0.0, 3.0], [0.0, 7.0], [522.0, 39.0], [88.0, 12.0], [83.0, 6.0], [2.0, 2.0], [2.0, 0.0], [0.0, 2.0], [81.0, 4.0], [78.0, 3.0], [4.0, 3.0], [0.0, 3.0], [4.0, 0.0], [74.0, 0.0], [3.0, 1.0], [3.0, 0.0], [0.0, 1.0], [5.0, 6.0], [1.0, 5.0], [1.0, 2.0], [1.0, 0.0], [0.0, 2.0], [0.0, 3.0], [4.0, 1.0], [4.0, 0.0], [0.0, 1.0], [434.0, 27.0], [327.0, 9.0], [316.0, 6.0], [80.0, 5.0], [6.0, 2.0], [0.0, 2.0], [6.0, 0.0], [74.0, 3.0], [16.0, 2.0], [14.0, 0.0], [2.0, 2.0], [2.0, 0.0], [0.0, 2.0], [58.0, 1.0], [58.0, 0.0], [0.0, 1.0], [236.0, 1.0], [236.0, 0.0], [0.0, 1.0], [11.0, 3.0], [4.0, 0.0], [7.0, 3.0], [0.0, 2.0], [7.0, 1.0], [3.0, 1.0], [1.0, 1.0], [1.0, 0.0], [0.0, 1.0], [2.0, 0.0], [4.0, 0.0], [107.0, 18.0], [93.0, 9.0], [66.0, 1.0], [61.0, 0.0], [5.0, 1.0], [0.0, 1.0], [5.0, 0.0], [27.0, 8.0], [24.0, 2.0], [7.0, 2.0], [0.0, 1.0], [7.0, 1.0], [0.0, 1.0], [7.0, 0.0], [17.0, 0.0], [3.0, 6.0], [0.0, 6.0], [3.0, 0.0], [14.0, 9.0], [14.0, 1.0], [0.0, 1.0], [14.0, 0.0], [0.0, 8.0]]}, {"children_left": [1, 2, 3, 4, 5, -1, -1, 8, -1, 10, 11, 12, 13, -1, -1, 16, -1, -1, -1, 20, 21, 22, -1, -1, 25, -1, -1, -1, 29, 30, 31, 32, 33, 34, -1, -1, 37, -1, -1, 40, 41, -1, -1, 44, -1, -1, 47, -1, 49, 50, -1, -1, 53, -1, -1, 56, -1, 58, -1, -1, 61, 62, 63, -1, -1, -1, 67, 68, 69, -1, 71, -1, -1, -1, 75, -1, -1, 78, 79, 80, 81, 82, 83, -1, 85, -1, -1, -1, 89, -1, 91, -1, -1, 94, 95, -1, -1, -1, 99, 100, -1, 102, -1, -1, -1, -1, 107, 108, 109, 110, 111, 112, -1, 114, 115, -1, -1, -1, 119, -1, 121, 122, -1, -1, -1, 126, 127, -1, 129, 130, -1, -1, -1, 134, -1, 136, -1, 138, -1, -1, 141, 142, -1, 144, 145, 146, -1, -1, -1, -1, -1, -1, 153, 154, 155, -1, -1, -1, -1], "children_right": [106, 77, 28, 7, 6, -1, -1, 9, -1, 19, 18, 15, 14, -1, -1, 17, -1, -1, -1, 27, 24, 23, -1, -1, 26, -1, -1, -1, 60, 55, 46, 39, 36, 35, -1, -1, 38, -1, -1, 43, 42, -1, -1, 45, -1, -1, 48, -1, 52, 51, -1, -1, 54, -1, -1, 57, -1, 59, -1, -1, 66, 65, 64, -1, -1, -1, 74, 73, 70, -1, 72, -1, -1, -1, 76, -1, -1, 105, 98, 93, 88, 87, 84, -1, 86, -1, -1, -1, 90, -1, 92, -1, -1, 97, 96, -1, -1, -1, 104, 101, -1, 103, -1, -1, -1, -1, 152, 151, 140, 125, 118, 113, -1, 117, 116, -1, -1, -1, 120, -1, 124, 123, -1, -1, -1, 133, 128, -1, 132, 131, -1, -1, -1, 135, -1, 137, -1, 139, -1, -1, 150, 143, -1, 149, 148, 147, -1, -1, -1, -1, -1, -1, 158, 157, 156, -1, -1, -1, -1], "feature": [10, 3, 6, 7, 12, -2, -2, 2, -2, 12, 4, 2, 3, -2, -2, 11, -2, -2, -2, 10, 5, 2, -2, -2, 5, -2, -2, -2, 12, 1, 0, 2, 12, 2, -2, -2, 5, -2, -2, 6, 4, -2, -2, 4, -2, -2, 11, -2, 9, 7, -2, -2, 6, -2, -2, 6, -2, 7, -2, -2, 9, 6, 4, -2, -2, -2, 3, 4, 9, -2, 10, -2, -2, -2, 10, -2, -2, 8, 0, 4, 12, 9, 6, -2, 3, -2, -2, -2, 6, -2, 7, -2, -2, 2, 12, -2, -2, -2, 3, 11, -2, 12, -2, -2, -2, -2, 11, 6, 12, 4, 4, 2, -2, 6, 5, -2, -2, -2, 4, -2, 0, 9, -2, -2, -2, 12, 6, -2, 0, 8, -2, -2, -2, 9, -2, 9, -2, 9, -2, -2, 6, 2, -2, 7, 2, 8, -2, -2, -2, -2, -2, -2, 4, 1, 7, -2, -2, -2, -2], "threshold": [1.1525033116340637, 0.9903393387794495, -0.4050915837287903, -2.1343560218811035, 0.7150012254714966, -2.0, -2.0, -2.442589044570923, -2.0, 1.4777836203575134, 2.3619548082351685, 2.967386841773987, 0.6964318156242371, -2.0, -2.0, -0.19031652808189392, -2.0, -2.0, -2.0, 0.5785793364048004, 0.40980926156044006, -0.2684866115450859, -2.0, -2.0, 1.4356087446212769, -2.0, -2.0, -2.0, 1.4777836203575134, 0.5, 0.5, 1.4632112979888916, -0.8105636239051819, 0.5025613605976105, -2.0, -2.0, -2.6175501346588135, -2.0, -2.0, 0.04934716038405895, 1.4394486546516418, -2.0, -2.0, 1.1313316226005554, -2.0, -2.0, -0.8011318147182465, -2.0, 0.3808353543281555, -0.9685463309288025, -2.0, -2.0, -0.12437996873632073, -2.0, -2.0, 1.187897801399231, -2.0, 1.0158106237649918, -2.0, -2.0, 0.7928917706012726, 0.35852254927158356, -0.08545395731925964, -2.0, -2.0, -2.0, -0.0015985071659088135, 0.36565154790878296, 0.9474129378795624, -2.0, -0.5513335391879082, -2.0, -2.0, -2.0, 0.07639582455158234, -2.0, -2.0, 0.5166563987731934, 0.5, 0.562145322561264, 1.4777836203575134, -0.49478456377983093, -2.180641770362854, -2.0, 1.9455386996269226, -2.0, -2.0, -2.0, 0.7530892193317413, -2.0, 0.44530802220106125, -2.0, -2.0, -1.4313786625862122, 0.33360999822616577, -2.0, -2.0, -2.0, 2.2027077674865723, -0.8011318147182465, -2.0, -0.8105636239051819, -2.0, -2.0, -2.0, -2.0, 2.0493395924568176, 2.027088224887848, 1.4777836203575134, 1.005870759487152, -0.5005817264318466, 0.7300837337970734, -2.0, -1.548549771308899, -1.0913606882095337, -2.0, -2.0, -2.0, -0.4692165106534958, -2.0, 0.5, 0.7928917706012726, -2.0, -2.0, -2.0, -0.8105636239051819, -0.7456752508878708, -2.0, 0.5, -1.3741942942142487, -2.0, -2.0, -2.0, -0.8038268983364105, -2.0, -0.005467552691698074, -2.0, 0.7156311869621277, -2.0, -2.0, 0.9562616348266602, -1.1027352809906006, -2.0, 0.12285000085830688, 0.43936071172356606, -0.9201931804418564, -2.0, -2.0, -2.0, -2.0, -2.0, -2.0, 0.08797718584537506, 0.5, 1.1150284558534622, -2.0, -2.0, -2.0, -2.0], "value": [[1752.0, 247.0], [1577.0, 193.0], [1196.0, 178.0], [452.0, 36.0], [3.0, 3.0], [3.0, 0.0], [0.0, 3.0], [449.0, 33.0], [0.0, 2.0], [449.0, 31.0], [441.0, 22.0], [441.0, 21.0], [438.0, 19.0], [429.0, 16.0], [9.0, 3.0], [3.0, 2.0], [0.0, 2.0], [3.0, 0.0], [0.0, 1.0], [8.0, 9.0], [4.0, 9.0], [3.0, 2.0], [2.0, 0.0], [1.0, 2.0], [1.0, 7.0], [0.0, 7.0], [1.0, 0.0], [4.0, 0.0], [744.0, 142.0], [711.0, 118.0], [659.0, 117.0], [616.0, 85.0], [582.0, 70.0], [146.0, 5.0], [104.0, 5.0], [42.0, 0.0], [436.0, 65.0], [0.0, 2.0], [436.0, 63.0], [34.0, 15.0], [14.0, 1.0], [14.0, 0.0], [0.0, 1.0], [20.0, 14.0], [20.0, 4.0], [0.0, 10.0], [43.0, 32.0], [0.0, 18.0], [43.0, 14.0], [20.0, 13.0], [1.0, 5.0], [19.0, 8.0], [23.0, 1.0], [3.0, 1.0], [20.0, 0.0], [52.0, 1.0], [45.0, 0.0], [7.0, 1.0], [7.0, 0.0], [0.0, 1.0], [33.0, 24.0], [30.0, 11.0], [6.0, 11.0], [0.0, 11.0], [6.0, 0.0], [24.0, 0.0], [3.0, 13.0], [2.0, 12.0], [2.0, 4.0], [0.0, 1.0], [2.0, 3.0], [1.0, 0.0], [1.0, 3.0], [0.0, 8.0], [1.0, 1.0], [0.0, 1.0], [1.0, 0.0], [381.0, 15.0], [257.0, 15.0], [238.0, 9.0], [154.0, 8.0], [151.0, 2.0], [38.0, 2.0], [0.0, 1.0], [38.0, 1.0], [31.0, 0.0], [7.0, 1.0], [113.0, 0.0], [3.0, 6.0], [0.0, 5.0], [3.0, 1.0], [0.0, 1.0], [3.0, 0.0], [84.0, 1.0], [3.0, 1.0], [0.0, 1.0], [3.0, 0.0], [81.0, 0.0], [19.0, 6.0], [11.0, 6.0], [0.0, 5.0], [11.0, 1.0], [0.0, 1.0], [11.0, 0.0], [8.0, 0.0], [124.0, 0.0], [175.0, 54.0], [169.0, 46.0], [169.0, 42.0], [164.0, 34.0], [143.0, 12.0], [67.0, 1.0], [54.0, 0.0], [13.0, 1.0], [1.0, 1.0], [1.0, 0.0], [0.0, 1.0], [12.0, 0.0], [76.0, 11.0], [0.0, 1.0], [76.0, 10.0], [76.0, 2.0], [65.0, 1.0], [11.0, 1.0], [0.0, 8.0], [21.0, 22.0], [2.0, 10.0], [1.0, 0.0], [1.0, 10.0], [1.0, 8.0], [1.0, 0.0], [0.0, 8.0], [0.0, 2.0], [19.0, 12.0], [8.0, 0.0], [11.0, 12.0], [0.0, 6.0], [11.0, 6.0], [6.0, 0.0], [5.0, 6.0], [5.0, 8.0], [5.0, 5.0], [0.0, 2.0], [5.0, 3.0], [1.0, 3.0], [1.0, 1.0], [0.0, 1.0], [1.0, 0.0], [0.0, 2.0], [4.0, 0.0], [0.0, 3.0], [0.0, 4.0], [6.0, 8.0], [3.0, 8.0], [3.0, 2.0], [3.0, 0.0], [0.0, 2.0], [0.0, 6.0], [3.0, 0.0]]}, {"children_left": [1, 2, 3, 4, 5, 6, 7, 8, -1, -1, 11, 12, -1, -1, -1, 16, -1, -1, -1, 20, 21, -1, 23, 24, 25, -1, -1, 28, -1, -1, -1, 32, 33, 34, 35, -1, -1, -1, -1, 40, 41, -1, -1, -1, 45, 46, 47, 48, 49, 50, -1, -1, 53, -1, -1, -1, 57, 58, 59, -1, -1, 62, -1, -1, 65, -1, -1, 68, 69, 70, 71, -1, -1, 74, -1, -1, 77, -1, 79, -1, -1, -1, 83, -1, -1, 86, 87, 88, 89, -1, 91, 92, -1, -1, 95, -1, -1, -1, -1, 100, 101, 102, 103, -1, 105, -1, 107, -1, -1, -1, 111, 112, 113, -1, -1, -1, 117, -1, -1, 120, -1, -1, 123, 124, 125, 126, -1, 128, -1, -1, 131, 132, 133, -1, 135, -1, 137, -1, -1, 140, -1, 142, -1, -1, 145, -1, 147, -1, 149, 150, -1, -1, -1, 154, -1, -1, -1], "children_right": [122, 85, 44, 19, 18, 15, 10, 9, -1, -1, 14, 13, -1, -1, -1, 17, -1, -1, -1, 31, 22, -1, 30, 27, 26, -1, -1, 29, -1, -1, -1, 39, 38, 37, 36, -1, -1, -1, -1, 43, 42, -1, -1, -1, 82, 67, 56, 55, 52, 51, -1, -1, 54, -1, -1, -1, 64, 61, 60, -1, -1, 63, -1, -1, 66, -1, -1, 81, 76, 73, 72, -1, -1, 75, -1, -1, 78, -1, 80, -1, -1, -1, 84, -1, -1, 99, 98, 97, 90, -1, 94, 93, -1, -1, 96, -1, -1, -1, -1, 119, 110, 109, 104, -1, 106, -1, 108, -1, -1, -1, 116, 115, 114, -1, -1, -1, 118, -1, -1, 121, -1, -1, 156, 153, 130, 127, -1, 129, -1, -1, 144, 139, 134, -1, 136, -1, 138, -1, -1, 141, -1, 143, -1, -1, 146, -1, 148, -1, 152, 151, -1, -1, -1, 155, -1, -1, -1], "feature": [12, 4, 8, 8, 11, 10, 4, 10, -2, -2, 7, 7, -2, -2, -2, 8, -2, -2, -2, 4, 8, -2, 8, 11, 2, -2, -2, 5, -2, -2, -2, 10, 0, 5, 9, -2, -2, -2, -2, 6, 12, -2, -2, -2, 10, 6, 11, 2, 7, 12, -2, -2, 3, -2, -2, -2, 8, 8, 2, -2, -2, 5, -2, -2, 9, -2, -2, 2, 9, 4, 8, -2, -2, 1, -2, -2, 9, -2, 6, -2, -2, -2, 8, -2, -2, 10, 2, 6, 6, -2, 5, 11, -2, -2, 6, -2, -2, -2, -2, 1, 4, 0, 7, -2, 11, -2, 2, -2, -2, -2, 2, 4, 7, -2, -2, -2, 2, -2, -2, 9, -2, -2, 5, 11, 4, 8, -2, 9, -2, -2, 10, 10, 9, -2, 6, -2, 11, -2, -2, 5, -2, 4, -2, -2, 5, -2, 5, -2, 12, 10, -2, -2, -2, 8, -2, -2, -2], "threshold": [1.4777836203575134, 1.5141716599464417, -0.3293023407459259, -0.7951212525367737, 4.696205735206604, 2.4617674350738525, -2.4037119150161743, 0.4709685519337654, -2.0, -2.0, 0.5197214037179947, 0.47011247277259827, -2.0, -2.0, -2.0, -1.2107144594192505, -2.0, -2.0, -2.0, 1.0658336877822876, -0.7852730751037598, -2.0, -0.33619606494903564, -0.8011318147182465, 0.07279691100120544, -2.0, -2.0, 1.3105112314224243, -2.0, -2.0, -2.0, 0.345422700047493, 0.5, 0.835140734910965, -0.5977986752986908, -2.0, -2.0, -2.0, -2.0, -0.04585923254489899, -0.42917241156101227, -2.0, -2.0, -2.0, 2.246545910835266, 1.4352381229400635, -0.8011318147182465, 1.8676955103874207, -1.5886578559875488, 0.33360999822616577, -2.0, -2.0, 0.7699086964130402, -2.0, -2.0, -2.0, 3.0043067932128906, 1.4177649021148682, -0.6097701489925385, -2.0, -2.0, 0.835140734910965, -2.0, -2.0, -0.49478454887866974, -2.0, -2.0, 2.297459900379181, 0.7156311869621277, 0.9772730767726898, -0.033856906928122044, -2.0, -2.0, 0.5, -2.0, -2.0, 0.9731664657592773, -2.0, 1.5883535742759705, -2.0, -2.0, -2.0, 0.6584701985120773, -2.0, -2.0, -0.569268673658371, 1.4505711793899536, 1.0828763246536255, -0.24019805341959, -2.0, 0.48486773669719696, -0.3939216360449791, -2.0, -2.0, -0.06156337633728981, -2.0, -2.0, -2.0, -2.0, 0.5, 1.636864960193634, 0.5, -1.415026605129242, -2.0, -1.0047369301319122, -2.0, -0.3316872641444206, -2.0, -2.0, -2.0, 1.8803356289863586, 1.6534700989723206, 1.1398329436779022, -2.0, -2.0, -2.0, 2.006736934185028, -2.0, -2.0, 1.4367299675941467, -2.0, -2.0, 1.335530698299408, 1.2349191308021545, -0.2773352414369583, 1.0632303953170776, -2.0, 0.8186452984809875, -2.0, -2.0, 1.009022295475006, -0.24643642455339432, -0.6493057310581207, -2.0, 0.2927614450454712, -2.0, -0.8011318147182465, -2.0, -2.0, 0.860160231590271, -2.0, 0.07690711319446564, -2.0, -2.0, -0.2406977005302906, -2.0, 0.30973125994205475, -2.0, 2.621957242488861, 1.38565993309021, -2.0, -2.0, -2.0, 0.3305257707834244, -2.0, -2.0, -2.0], "value": [[1745.0, 254.0], [1699.0, 194.0], [1650.0, 127.0], [585.0, 63.0], [357.0, 16.0], [357.0, 14.0], [354.0, 10.0], [2.0, 2.0], [2.0, 0.0], [0.0, 2.0], [352.0, 8.0], [237.0, 8.0], [229.0, 6.0], [8.0, 2.0], [115.0, 0.0], [3.0, 4.0], [0.0, 4.0], [3.0, 0.0], [0.0, 2.0], [228.0, 47.0], [219.0, 35.0], [0.0, 3.0], [219.0, 32.0], [219.0, 30.0], [42.0, 16.0], [27.0, 0.0], [15.0, 16.0], [177.0, 14.0], [156.0, 9.0], [21.0, 5.0], [0.0, 2.0], [9.0, 12.0], [8.0, 4.0], [8.0, 2.0], [8.0, 1.0], [1.0, 1.0], [7.0, 0.0], [0.0, 1.0], [0.0, 2.0], [1.0, 8.0], [1.0, 1.0], [0.0, 1.0], [1.0, 0.0], [0.0, 7.0], [1065.0, 64.0], [1061.0, 59.0], [986.0, 41.0], [161.0, 19.0], [161.0, 17.0], [3.0, 3.0], [3.0, 0.0], [0.0, 3.0], [158.0, 14.0], [123.0, 14.0], [35.0, 0.0], [0.0, 2.0], [825.0, 22.0], [822.0, 20.0], [743.0, 13.0], [196.0, 8.0], [547.0, 5.0], [79.0, 7.0], [59.0, 2.0], [20.0, 5.0], [3.0, 2.0], [0.0, 2.0], [3.0, 0.0], [75.0, 18.0], [75.0, 15.0], [68.0, 8.0], [64.0, 2.0], [13.0, 2.0], [51.0, 0.0], [4.0, 6.0], [0.0, 6.0], [4.0, 0.0], [7.0, 7.0], [0.0, 4.0], [7.0, 3.0], [0.0, 3.0], [7.0, 0.0], [0.0, 3.0], [4.0, 5.0], [0.0, 5.0], [4.0, 0.0], [49.0, 67.0], [25.0, 10.0], [25.0, 7.0], [25.0, 4.0], [14.0, 0.0], [11.0, 4.0], [1.0, 3.0], [0.0, 3.0], [1.0, 0.0], [10.0, 1.0], [0.0, 1.0], [10.0, 0.0], [0.0, 3.0], [0.0, 3.0], [24.0, 57.0], [8.0, 54.0], [5.0, 5.0], [3.0, 5.0], [1.0, 0.0], [2.0, 5.0], [1.0, 0.0], [1.0, 5.0], [0.0, 4.0], [1.0, 1.0], [2.0, 0.0], [3.0, 49.0], [1.0, 48.0], [1.0, 3.0], [1.0, 0.0], [0.0, 3.0], [0.0, 45.0], [2.0, 1.0], [2.0, 0.0], [0.0, 1.0], [16.0, 3.0], [16.0, 0.0], [0.0, 3.0], [46.0, 60.0], [46.0, 52.0], [40.0, 51.0], [2.0, 30.0], [0.0, 25.0], [2.0, 5.0], [0.0, 5.0], [2.0, 0.0], [38.0, 21.0], [32.0, 11.0], [12.0, 9.0], [6.0, 0.0], [6.0, 9.0], [0.0, 7.0], [6.0, 2.0], [0.0, 2.0], [6.0, 0.0], [20.0, 2.0], [19.0, 0.0], [1.0, 2.0], [1.0, 0.0], [0.0, 2.0], [6.0, 10.0], [3.0, 0.0], [3.0, 10.0], [0.0, 7.0], [3.0, 3.0], [1.0, 3.0], [0.0, 3.0], [1.0, 0.0], [2.0, 0.0], [6.0, 1.0], [6.0, 0.0], [0.0, 1.0], [0.0, 8.0]]}, {"children_left": [1, 2, 3, 4, 5, 6, 7, -1, -1, -1, -1, -1, 13, 14, -1, -1, 17, 18, 19, -1, 21, 22, -1, -1, 25, -1, -1, 28, 29, -1, 31, -1, -1, -1, 35, 36, 37, 38, -1, -1, -1, -1, 43, -1, -1, 46, 47, 48, 49, 50, 51, 52, -1, -1, 55, -1, -1, 58, 59, -1, -1, 62, -1, -1, 65, -1, 67, -1, -1, 70, -1, 72, -1, -1, 75, 76, 77, -1, -1, -1, -1, 82, 83, 84, -1, -1, -1, 88, 89, 90, 91, -1, -1, -1, -1, -1, 97, -1, 99, 100, 101, 102, -1, 104, -1, -1, -1, 108, 109, -1, 111, 112, -1, 114, -1, -1, 117, 118, -1, -1, -1, 122, 123, 124, 125, -1, -1, 128, -1, -1, -1, -1, 133, -1, -1], "children_right": [96, 45, 12, 11, 10, 9, 8, -1, -1, -1, -1, -1, 16, 15, -1, -1, 34, 27, 20, -1, 24, 23, -1, -1, 26, -1, -1, 33, 30, -1, 32, -1, -1, -1, 42, 41, 40, 39, -1, -1, -1, -1, 44, -1, -1, 81, 74, 69, 64, 57, 54, 53, -1, -1, 56, -1, -1, 61, 60, -1, -1, 63, -1, -1, 66, -1, 68, -1, -1, 71, -1, 73, -1, -1, 80, 79, 78, -1, -1, -1, -1, 87, 86, 85, -1, -1, -1, 95, 94, 93, 92, -1, -1, -1, -1, -1, 98, -1, 132, 107, 106, 103, -1, 105, -1, -1, -1, 121, 110, -1, 116, 113, -1, 115, -1, -1, 120, 119, -1, -1, -1, 131, 130, 127, 126, -1, -1, 129, -1, -1, -1, -1, 134, -1, -1], "feature": [12, 11, 10, 5, 0, 2, 9, -2, -2, -2, -2, -2, 9, 7, -2, -2, 6, 4, 2, -2, 4, 0, -2, -2, 6, -2, -2, 0, 8, -2, 10, -2, -2, -2, 4, 8, 6, 0, -2, -2, -2, -2, 9, -2, -2, 4, 6, 5, 10, 2, 5, 11, -2, -2, 5, -2, -2, 6, 4, -2, -2, 4, -2, -2, 12, -2, 0, -2, -2, 4, -2, 11, -2, -2, 4, 4, 2, -2, -2, -2, -2, 6, 3, 4, -2, -2, -2, 3, 5, 10, 12, -2, -2, -2, -2, -2, 4, -2, 2, 2, 2, 7, -2, 9, -2, -2, -2, 7, 2, -2, 11, 2, -2, 10, -2, -2, 4, 5, -2, -2, -2, 12, 6, 2, 4, -2, -2, 7, -2, -2, -2, -2, 10, -2, -2], "threshold": [1.4777836203575134, -0.8011318147182465, -0.42578765749931335, 2.5114470720291138, 0.5, -1.9496240019798279, 0.9216594398021698, -2.0, -2.0, -2.0, -2.0, -2.0, -2.117256760597229, 0.44530801102519035, -2.0, -2.0, 0.87675940990448, 0.873029887676239, -2.404668688774109, -2.0, -0.8372964560985565, 0.5, -2.0, -2.0, -0.20486371964216232, -2.0, -2.0, 0.5, -0.274152509868145, -2.0, 0.542709082365036, -2.0, -2.0, -2.0, 0.9357602894306183, 0.10500243678689003, 1.500017762184143, 0.5, -2.0, -2.0, -2.0, -2.0, 1.1534411311149597, -2.0, -2.0, 1.7051304578781128, 1.9976428747177124, 2.2862716913223267, 2.372091770172119, -1.8864233493804932, -0.9162242114543915, 0.4204987362027168, -2.0, -2.0, 0.6600042581558228, -2.0, -2.0, 0.8747963905334473, 1.5971972346305847, -2.0, -2.0, 0.7586391568183899, -2.0, -2.0, -0.04778118431568146, -2.0, 0.5, -2.0, -2.0, -0.24043499189428985, -2.0, 0.21689365059137344, -2.0, -2.0, 0.7531041204929352, -1.4378479719161987, -1.4187384843826294, -2.0, -2.0, -2.0, -2.0, -0.6543949246406555, 0.25557053089141846, 2.4864931106567383, -2.0, -2.0, -2.0, 0.25557053089141846, 2.2612521648406982, -0.658944308757782, -0.04778118431568146, -2.0, -2.0, -2.0, -2.0, -2.0, -0.7007655501365662, -2.0, 1.400010585784912, -0.8752128779888153, -1.0395346283912659, -0.32363031804561615, -2.0, -0.08272813260555267, -2.0, -2.0, -2.0, 0.7677660286426544, -0.3316872715950012, -2.0, -0.8011318147182465, -0.003043871372938156, -2.0, 0.3095524534583092, -2.0, -2.0, 1.5944296717643738, -2.067121148109436, -2.0, -2.0, -2.0, 3.003348469734192, 1.2467883825302124, 0.2623988762497902, -0.49689169228076935, -2.0, -2.0, 1.3878775238990784, -2.0, -2.0, -2.0, -2.0, 2.121000051498413, -2.0, -2.0], "value": [[1744.0, 255.0], [1663.0, 206.0], [293.0, 68.0], [112.0, 6.0], [112.0, 5.0], [112.0, 2.0], [3.0, 2.0], [3.0, 0.0], [0.0, 2.0], [109.0, 0.0], [0.0, 3.0], [0.0, 1.0], [181.0, 62.0], [2.0, 6.0], [0.0, 6.0], [2.0, 0.0], [179.0, 56.0], [165.0, 40.0], [142.0, 20.0], [0.0, 3.0], [142.0, 17.0], [42.0, 10.0], [42.0, 4.0], [0.0, 6.0], [100.0, 7.0], [40.0, 6.0], [60.0, 1.0], [23.0, 20.0], [23.0, 11.0], [8.0, 0.0], [15.0, 11.0], [2.0, 9.0], [13.0, 2.0], [0.0, 9.0], [14.0, 16.0], [13.0, 6.0], [3.0, 6.0], [3.0, 1.0], [3.0, 0.0], [0.0, 1.0], [0.0, 5.0], [10.0, 0.0], [1.0, 10.0], [0.0, 10.0], [1.0, 0.0], [1370.0, 138.0], [1351.0, 96.0], [1334.0, 84.0], [1330.0, 81.0], [1327.0, 74.0], [33.0, 9.0], [4.0, 5.0], [1.0, 5.0], [3.0, 0.0], [29.0, 4.0], [21.0, 1.0], [8.0, 3.0], [1294.0, 65.0], [1072.0, 42.0], [1056.0, 37.0], [16.0, 5.0], [222.0, 23.0], [199.0, 8.0], [23.0, 15.0], [3.0, 7.0], [0.0, 3.0], [3.0, 4.0], [3.0, 0.0], [0.0, 4.0], [4.0, 3.0], [2.0, 0.0], [2.0, 3.0], [2.0, 0.0], [0.0, 3.0], [17.0, 12.0], [17.0, 3.0], [1.0, 3.0], [1.0, 0.0], [0.0, 3.0], [16.0, 0.0], [0.0, 9.0], [19.0, 42.0], [11.0, 1.0], [2.0, 1.0], [2.0, 0.0], [0.0, 1.0], [9.0, 0.0], [8.0, 41.0], [2.0, 41.0], [1.0, 41.0], [1.0, 5.0], [1.0, 0.0], [0.0, 5.0], [0.0, 36.0], [1.0, 0.0], [6.0, 0.0], [81.0, 49.0], [0.0, 22.0], [81.0, 27.0], [79.0, 23.0], [4.0, 5.0], [4.0, 1.0], [3.0, 0.0], [1.0, 1.0], [1.0, 0.0], [0.0, 1.0], [0.0, 4.0], [75.0, 18.0], [63.0, 9.0], [19.0, 0.0], [44.0, 9.0], [2.0, 4.0], [0.0, 3.0], [2.0, 1.0], [0.0, 1.0], [2.0, 0.0], [42.0, 5.0], [42.0, 3.0], [0.0, 1.0], [42.0, 2.0], [0.0, 2.0], [12.0, 9.0], [12.0, 7.0], [9.0, 7.0], [7.0, 1.0], [0.0, 1.0], [7.0, 0.0], [2.0, 6.0], [1.0, 6.0], [1.0, 0.0], [3.0, 0.0], [0.0, 2.0], [2.0, 4.0], [0.0, 4.0], [2.0, 0.0]]}, {"children_left": [1, 2, 3, 4, 5, -1, 7, -1, 9, -1, -1, 12, -1, -1, 15, 16, 17, 18, -1, 20, -1, -1, -1, 24, -1, 26, -1, 28, -1, -1, 31, 32, 33, 34, 35, -1, -1, 38, -1, -1, 41, 42, -1, -1, 45, -1, -1, -1, 49, -1, 51, 52, 53, -1, -1, -1, -1, 58, 59, 60, 61, -1, -1, 64, -1, -1, 67, 68, -1, -1, -1, 72, -1, 74, 75, -1, -1, -1, 79, 80, 81, 82, -1, 84, -1, -1, -1, 88, 89, 90, 91, -1, 93, -1, -1, 96, -1, -1, 99, 100, -1, -1, -1, -1, 105, 106, 107, -1, -1, -1, 111, 112, -1, 114, -1, 116, 117, 118, -1, -1, 121, -1, -1, -1, 125, -1, 127, -1, -1], "children_right": [78, 57, 14, 11, 6, -1, 8, -1, 10, -1, -1, 13, -1, -1, 30, 23, 22, 19, -1, 21, -1, -1, -1, 25, -1, 27, -1, 29, -1, -1, 48, 47, 40, 37, 36, -1, -1, 39, -1, -1, 44, 43, -1, -1, 46, -1, -1, -1, 50, -1, 56, 55, 54, -1, -1, -1, -1, 71, 66, 63, 62, -1, -1, 65, -1, -1, 70, 69, -1, -1, -1, 73, -1, 77, 76, -1, -1, -1, 104, 87, 86, 83, -1, 85, -1, -1, -1, 103, 98, 95, 92, -1, 94, -1, -1, 97, -1, -1, 102, 101, -1, -1, -1, -1, 110, 109, 108, -1, -1, -1, 124, 113, -1, 115, -1, 123, 120, 119, -1, -1, 122, -1, -1, -1, 126, -1, 128, -1, -1], "feature": [12, 4, 2, 2, 6, -2, 7, -2, 9, -2, -2, 7, -2, -2, 9, 11, 7, 6, -2, 2, -2, -2, -2, 4, -2, 2, -2, 6, -2, -2, 0, 6, 2, 9, 7, -2, -2, 6, -2, -2, 8, 4, -2, -2, 12, -2, -2, -2, 11, -2, 10, 6, 6, -2, -2, -2, -2, 3, 7, 9, 5, -2, -2, 7, -2, -2, 6, 8, -2, -2, -2, 4, -2, 10, 10, -2, -2, -2, 7, 6, 8, 4, -2, 10, -2, -2, -2, 0, 11, 7, 7, -2, 2, -2, -2, 6, -2, -2, 10, 3, -2, -2, -2, -2, 10, 12, 6, -2, -2, -2, 9, 6, -2, 4, -2, 4, 5, 4, -2, -2, 9, -2, -2, -2, 8, -2, 10, -2, -2], "threshold": [1.4777836203575134, 1.5676770210266113, -1.9243437051773071, -1.9749042987823486, 0.496915340423584, -2.0, -0.47245708107948303, -2.0, -0.5977986752986908, -2.0, -2.0, -0.10039015486836433, -2.0, -2.0, -1.3188974261283875, -0.8011318147182465, -0.8941329419612885, 0.39385688304901123, -2.0, -0.0030438732355833054, -2.0, -2.0, -2.0, 0.6885286867618561, -2.0, 1.0713672637939453, -2.0, 1.341013252735138, -2.0, -2.0, 0.5, 2.7416268587112427, -0.812012255191803, -1.1128692030906677, 0.1476544663310051, -2.0, -2.0, 0.8738148808479309, -2.0, -2.0, 3.001352310180664, 0.8674948513507843, -2.0, -2.0, -0.8105636239051819, -2.0, -2.0, -2.0, -0.8011318147182465, -2.0, 1.0269574522972107, 2.4098767042160034, 2.0123655200004578, -2.0, -2.0, -2.0, -2.0, -0.11181382834911346, 0.27167678624391556, 1.2049482464790344, 0.835140734910965, -2.0, -2.0, -0.5716749429702759, -2.0, -2.0, -0.47085270285606384, 1.0356554985046387, -2.0, -2.0, -2.0, 1.7005178928375244, -2.0, -1.1431926488876343, -1.3225439190864563, -2.0, -2.0, -2.0, -0.12519461661577225, -0.6632285118103027, 1.9377488493919373, 1.0233983993530273, -2.0, -0.30024176836013794, -2.0, -2.0, -2.0, 0.5, 0.420498751103878, -0.47245708107948303, -1.2661998867988586, -2.0, 0.9070455431938171, -2.0, -2.0, -0.1822890043258667, -2.0, -2.0, -0.31817692518234253, 0.8066471219062805, -2.0, -2.0, -2.0, -2.0, -1.1431926488876343, 2.240566074848175, 1.1545265018939972, -2.0, -2.0, -2.0, 1.0504270792007446, -0.8349926173686981, -2.0, -0.6666328012943268, -2.0, 1.5243192315101624, 0.6349847316741943, -0.464603990316391, -2.0, -2.0, 0.14905360876582563, -2.0, -2.0, -2.0, 0.3512069582939148, -2.0, 0.1660714466124773, -2.0, -2.0], "value": [[1720.0, 279.0], [1643.0, 203.0], [1601.0, 141.0], [40.0, 11.0], [35.0, 3.0], [24.0, 0.0], [11.0, 3.0], [10.0, 0.0], [1.0, 3.0], [1.0, 0.0], [0.0, 3.0], [5.0, 8.0], [0.0, 8.0], [5.0, 0.0], [1561.0, 130.0], [144.0, 3.0], [26.0, 2.0], [2.0, 2.0], [0.0, 1.0], [2.0, 1.0], [0.0, 1.0], [2.0, 0.0], [24.0, 0.0], [118.0, 1.0], [106.0, 0.0], [12.0, 1.0], [11.0, 0.0], [1.0, 1.0], [1.0, 0.0], [0.0, 1.0], [1417.0, 127.0], [1321.0, 49.0], [1321.0, 48.0], [242.0, 17.0], [7.0, 3.0], [7.0, 0.0], [0.0, 3.0], [235.0, 14.0], [194.0, 8.0], [41.0, 6.0], [1079.0, 31.0], [1078.0, 30.0], [972.0, 17.0], [106.0, 13.0], [1.0, 1.0], [0.0, 1.0], [1.0, 0.0], [0.0, 1.0], [96.0, 78.0], [0.0, 40.0], [96.0, 38.0], [96.0, 11.0], [96.0, 7.0], [93.0, 5.0], [3.0, 2.0], [0.0, 4.0], [0.0, 27.0], [42.0, 62.0], [18.0, 57.0], [4.0, 33.0], [2.0, 32.0], [0.0, 32.0], [2.0, 0.0], [2.0, 1.0], [2.0, 0.0], [0.0, 1.0], [14.0, 24.0], [14.0, 2.0], [14.0, 0.0], [0.0, 2.0], [0.0, 22.0], [24.0, 5.0], [0.0, 4.0], [24.0, 1.0], [1.0, 1.0], [1.0, 0.0], [0.0, 1.0], [23.0, 0.0], [77.0, 76.0], [24.0, 42.0], [2.0, 20.0], [1.0, 20.0], [0.0, 19.0], [1.0, 1.0], [0.0, 1.0], [1.0, 0.0], [1.0, 0.0], [22.0, 22.0], [22.0, 17.0], [15.0, 16.0], [14.0, 7.0], [0.0, 5.0], [14.0, 2.0], [14.0, 0.0], [0.0, 2.0], [1.0, 9.0], [1.0, 0.0], [0.0, 9.0], [7.0, 1.0], [1.0, 1.0], [0.0, 1.0], [1.0, 0.0], [6.0, 0.0], [0.0, 5.0], [53.0, 34.0], [2.0, 7.0], [1.0, 7.0], [0.0, 7.0], [1.0, 0.0], [1.0, 0.0], [51.0, 27.0], [39.0, 26.0], [0.0, 3.0], [39.0, 23.0], [0.0, 14.0], [39.0, 9.0], [39.0, 5.0], [28.0, 1.0], [2.0, 1.0], [26.0, 0.0], [11.0, 4.0], [11.0, 3.0], [0.0, 1.0], [0.0, 4.0], [12.0, 1.0], [11.0, 0.0], [1.0, 1.0], [0.0, 1.0], [1.0, 0.0]]}, {"children_left": [1, 2, 3, 4, 5, -1, -1, -1, -1, 10, 11, 12, 13, 14, 15, 16, -1, -1, -1, 20, 21, -1, -1, -1, 25, 26, 27, -1, -1, 30, -1, -1, -1, 34, 35, 36, -1, -1, -1, 40, 41, 42, -1, -1, 45, -1, -1, -1, 49, 50, 51, 52, -1, 54, -1, -1, -1, 58, -1, 60, 61, -1, -1, -1, -1, 66, 67, 68, 69, 70, -1, -1, 73, 74, -1, -1, 77, -1, -1, -1, 81, -1, 83, 84, -1, 86, -1, -1, -1, 90, -1, 92, 93, 94, -1, 96, -1, -1, -1, 100, -1, -1, 103, 104, -1, 106, -1, 108, 109, -1, -1, 112, 113, -1, 115, -1, -1, -1, 119, 120, 121, 122, 123, 124, -1, -1, -1, 128, -1, -1, 131, 132, -1, 134, -1, -1, -1, -1, 139, 140, -1, -1, -1], "children_right": [102, 9, 8, 7, 6, -1, -1, -1, -1, 65, 48, 33, 24, 19, 18, 17, -1, -1, -1, 23, 22, -1, -1, -1, 32, 29, 28, -1, -1, 31, -1, -1, -1, 39, 38, 37, -1, -1, -1, 47, 44, 43, -1, -1, 46, -1, -1, -1, 64, 57, 56, 53, -1, 55, -1, -1, -1, 59, -1, 63, 62, -1, -1, -1, -1, 89, 80, 79, 72, 71, -1, -1, 76, 75, -1, -1, 78, -1, -1, -1, 82, -1, 88, 85, -1, 87, -1, -1, -1, 91, -1, 99, 98, 95, -1, 97, -1, -1, -1, 101, -1, -1, 118, 105, -1, 107, -1, 111, 110, -1, -1, 117, 114, -1, 116, -1, -1, -1, 138, 137, 130, 127, 126, 125, -1, -1, -1, 129, -1, -1, 136, 133, -1, 135, -1, -1, -1, -1, 142, 141, -1, -1, -1], "feature": [12, 5, 12, 3, 6, -2, -2, -2, -2, 0, 1, 4, 8, 7, 4, 6, -2, -2, -2, 2, 11, -2, -2, -2, 8, 4, 9, -2, -2, 4, -2, -2, -2, 9, 5, 10, -2, -2, -2, 10, 4, 12, -2, -2, 12, -2, -2, -2, 4, 5, 5, 4, -2, 8, -2, -2, -2, 10, -2, 10, 11, -2, -2, -2, -2, 7, 6, 10, 4, 11, -2, -2, 3, 5, -2, -2, 2, -2, -2, -2, 11, -2, 2, 9, -2, 10, -2, -2, -2, 11, -2, 8, 10, 2, -2, 10, -2, -2, -2, 11, -2, -2, 10, 6, -2, 4, -2, 9, 5, -2, -2, 9, 1, -2, 10, -2, -2, -2, 12, 7, 8, 2, 7, 4, -2, -2, -2, 8, -2, -2, 2, 4, -2, 5, -2, -2, -2, -2, 6, 7, -2, -2, -2], "threshold": [1.4777836203575134, -2.642569661140442, -0.04778118431568146, 0.145355224609375, -0.7054333984851837, -2.0, -2.0, -2.0, -2.0, 0.5, 0.5, 1.5971972346305847, 1.069139301776886, -1.3158087730407715, 1.4671238660812378, 0.5194900631904602, -2.0, -2.0, -2.0, 2.8915460109710693, 0.013288557529449463, -2.0, -2.0, -2.0, 1.5585939288139343, 0.9671255052089691, -0.5462916195392609, -2.0, -2.0, 1.3269029259681702, -2.0, -2.0, -2.0, -0.5977986752986908, -0.5409317165613174, 0.4889037050306797, -2.0, -2.0, -2.0, 1.38565993309021, 1.7733958959579468, -0.04778118431568146, -2.0, -2.0, -0.04778118431568146, -2.0, -2.0, -2.0, 2.521548271179199, 1.4105892181396484, 0.15961426496505737, -0.08637646958231926, -2.0, -0.7094421088695526, -2.0, -2.0, -2.0, -1.2866736352443695, -2.0, 0.022590452805161476, -0.3939216360449791, -2.0, -2.0, -2.0, -2.0, 0.6189392507076263, 0.1396460011601448, 1.0448925495147705, 0.13225748389959335, -0.8011318147182465, -2.0, -2.0, 0.03513991832733154, 1.5356866717338562, -2.0, -2.0, -0.23056623339653015, -2.0, -2.0, -2.0, -0.8011318147182465, -2.0, 1.5264118909835815, -1.8339679837226868, -2.0, 1.0986979603767395, -2.0, -2.0, -2.0, -0.8011318147182465, -2.0, 0.4644610434770584, 0.9193466901779175, 0.9070455431938171, -2.0, -0.1746959239244461, -2.0, -2.0, -2.0, 1.2349191308021545, -2.0, -2.0, 0.23781195282936096, -1.3031724691390991, -2.0, -0.44154132902622223, -2.0, 0.5868635475635529, 1.6607841849327087, -2.0, -2.0, 1.5397440791130066, 0.5, -2.0, -0.8741658180952072, -2.0, -2.0, -2.0, 2.240566074848175, 0.6685481667518616, 0.6417282819747925, 1.3368099927902222, -0.2740213945508003, -0.1481843888759613, -2.0, -2.0, -2.0, -0.6562619507312775, -2.0, -2.0, 0.009596258401870728, -0.19523219764232635, -2.0, 0.10957527160644531, -2.0, -2.0, -2.0, -2.0, -0.2696433253586292, 2.3552515506744385, -2.0, -2.0, -2.0], "value": [[1724.0, 275.0], [1668.0, 211.0], [4.0, 5.0], [4.0, 2.0], [1.0, 2.0], [1.0, 0.0], [0.0, 2.0], [3.0, 0.0], [0.0, 3.0], [1664.0, 206.0], [1540.0, 122.0], [1088.0, 112.0], [1074.0, 56.0], [940.0, 39.0], [81.0, 10.0], [81.0, 6.0], [46.0, 0.0], [35.0, 6.0], [0.0, 4.0], [859.0, 29.0], [859.0, 27.0], [503.0, 24.0], [356.0, 3.0], [0.0, 2.0], [134.0, 17.0], [80.0, 17.0], [77.0, 8.0], [12.0, 6.0], [65.0, 2.0], [3.0, 9.0], [0.0, 7.0], [3.0, 2.0], [54.0, 0.0], [14.0, 56.0], [4.0, 5.0], [4.0, 1.0], [4.0, 0.0], [0.0, 1.0], [0.0, 4.0], [10.0, 51.0], [8.0, 51.0], [7.0, 11.0], [4.0, 7.0], [3.0, 4.0], [1.0, 40.0], [0.0, 27.0], [1.0, 13.0], [2.0, 0.0], [452.0, 10.0], [452.0, 7.0], [408.0, 5.0], [247.0, 5.0], [112.0, 0.0], [135.0, 5.0], [26.0, 4.0], [109.0, 1.0], [161.0, 0.0], [44.0, 2.0], [0.0, 1.0], [44.0, 1.0], [9.0, 1.0], [6.0, 0.0], [3.0, 1.0], [35.0, 0.0], [0.0, 3.0], [124.0, 84.0], [73.0, 64.0], [39.0, 48.0], [39.0, 29.0], [25.0, 8.0], [0.0, 8.0], [25.0, 0.0], [14.0, 21.0], [8.0, 19.0], [6.0, 19.0], [2.0, 0.0], [6.0, 2.0], [4.0, 0.0], [2.0, 2.0], [0.0, 19.0], [34.0, 16.0], [0.0, 10.0], [34.0, 6.0], [34.0, 5.0], [0.0, 1.0], [34.0, 4.0], [34.0, 2.0], [0.0, 2.0], [0.0, 1.0], [51.0, 20.0], [0.0, 4.0], [51.0, 16.0], [32.0, 15.0], [32.0, 1.0], [23.0, 0.0], [9.0, 1.0], [7.0, 0.0], [2.0, 1.0], [0.0, 14.0], [19.0, 1.0], [19.0, 0.0], [0.0, 1.0], [56.0, 64.0], [37.0, 24.0], [0.0, 4.0], [37.0, 20.0], [0.0, 16.0], [37.0, 4.0], [33.0, 1.0], [33.0, 0.0], [0.0, 1.0], [4.0, 3.0], [1.0, 3.0], [0.0, 2.0], [1.0, 1.0], [0.0, 1.0], [1.0, 0.0], [3.0, 0.0], [19.0, 40.0], [17.0, 19.0], [17.0, 12.0], [15.0, 5.0], [14.0, 2.0], [2.0, 2.0], [0.0, 2.0], [2.0, 0.0], [12.0, 0.0], [1.0, 3.0], [1.0, 0.0], [0.0, 3.0], [2.0, 7.0], [1.0, 7.0], [0.0, 6.0], [1.0, 1.0], [1.0, 0.0], [0.0, 1.0], [1.0, 0.0], [0.0, 7.0], [2.0, 21.0], [2.0, 7.0], [0.0, 7.0], [2.0, 0.0], [0.0, 14.0]]}, {"children_left": [1, 2, 3, 4, 5, 6, 7, 8, 9, -1, -1, 12, -1, -1, 15, 16, -1, -1, 19, -1, -1, 22, -1, 24, 25, -1, -1, 28, -1, -1, 31, 32, 33, 34, -1, -1, 37, -1, -1, 40, -1, 42, -1, -1, 45, -1, -1, 48, 49, -1, 51, 52, -1, -1, -1, 56, -1, 58, 59, -1, -1, -1, 63, 64, 65, 66, 67, -1, 69, -1, -1, -1, 73, -1, 75, -1, -1, 78, 79, -1, -1, -1, 83, 84, 85, 86, 87, -1, -1, 90, -1, -1, 93, 94, -1, -1, 97, -1, -1, 100, 101, 102, -1, -1, -1, 106, 107, -1, -1, -1, 111, -1, 113, 114, 115, -1, -1, -1, -1, 120, 121, -1, 123, -1, -1, 126, 127, -1, 129, -1, 131, -1, -1, -1, 135, 136, 137, 138, 139, 140, 141, -1, 143, -1, -1, 146, -1, -1, 149, -1, 151, -1, -1, 154, 155, 156, -1, -1, -1, -1, 161, 162, -1, -1, 165, -1, 167, -1, -1, 170, 171, 172, 173, 174, -1, 176, -1, -1, 179, 180, -1, -1, -1, 184, -1, 186, -1, 188, -1, -1, 191, -1, 193, -1, -1, 196, 197, -1, -1, 200, -1, 202, -1, -1, -1], "children_right": [134, 119, 62, 47, 30, 21, 14, 11, 10, -1, -1, 13, -1, -1, 18, 17, -1, -1, 20, -1, -1, 23, -1, 27, 26, -1, -1, 29, -1, -1, 44, 39, 36, 35, -1, -1, 38, -1, -1, 41, -1, 43, -1, -1, 46, -1, -1, 55, 50, -1, 54, 53, -1, -1, -1, 57, -1, 61, 60, -1, -1, -1, 82, 77, 72, 71, 68, -1, 70, -1, -1, -1, 74, -1, 76, -1, -1, 81, 80, -1, -1, -1, 110, 99, 92, 89, 88, -1, -1, 91, -1, -1, 96, 95, -1, -1, 98, -1, -1, 105, 104, 103, -1, -1, -1, 109, 108, -1, -1, -1, 112, -1, 118, 117, 116, -1, -1, -1, -1, 125, 122, -1, 124, -1, -1, 133, 128, -1, 130, -1, 132, -1, -1, -1, 204, 169, 160, 153, 148, 145, 142, -1, 144, -1, -1, 147, -1, -1, 150, -1, 152, -1, -1, 159, 158, 157, -1, -1, -1, -1, 164, 163, -1, -1, 166, -1, 168, -1, -1, 195, 190, 183, 178, 175, -1, 177, -1, -1, 182, 181, -1, -1, -1, 185, -1, 187, -1, 189, -1, -1, 192, -1, 194, -1, -1, 199, 198, -1, -1, 201, -1, 203, -1, -1, -1], "feature": [3, 12, 4, 6, 10, 12, 9, 11, 4, -2, -2, 2, -2, -2, 6, 7, -2, -2, 4, -2, -2, 4, -2, 0, 10, -2, -2, 11, -2, -2, 3, 4, 11, 12, -2, -2, 0, -2, -2, 4, -2, 4, -2, -2, 10, -2, -2, 0, 4, -2, 5, 11, -2, -2, -2, 11, -2, 6, 7, -2, -2, -2, 7, 10, 11, 9, 11, -2, 5, -2, -2, -2, 9, -2, 7, -2, -2, 2, 6, -2, -2, -2, 2, 6, 12, 11, 4, -2, -2, 8, -2, -2, 6, 8, -2, -2, 8, -2, -2, 5, 12, 4, -2, -2, -2, 3, 10, -2, -2, -2, 6, -2, 9, 11, 12, -2, -2, -2, -2, 2, 8, -2, 10, -2, -2, 10, 4, -2, 8, -2, 9, -2, -2, -2, 4, 3, 10, 12, 10, 0, 5, -2, 11, -2, -2, 5, -2, -2, 2, -2, 0, -2, -2, 5, 2, 9, -2, -2, -2, -2, 11, 7, -2, -2, 7, -2, 0, -2, -2, 12, 8, 0, 4, 8, -2, 5, -2, -2, 3, 9, -2, -2, -2, 5, -2, 11, -2, 8, -2, -2, 2, -2, 7, -2, -2, 6, 4, -2, -2, 9, -2, 11, -2, -2, -2], "threshold": [0.8433855473995209, 2.240566074848175, 1.0566086173057556, 1.8396198749542236, 1.0448925495147705, 1.4777836203575134, 0.7928917706012726, -0.8011318147182465, 0.868417352437973, -2.0, -2.0, -0.07888465747237206, -2.0, -2.0, 0.9817808866500854, -1.56385338306427, -2.0, -2.0, -0.1325017772614956, -2.0, -2.0, -0.7155256271362305, -2.0, 0.5, -0.784490168094635, -2.0, -2.0, -0.5975267365574837, -2.0, -2.0, 0.6964318156242371, 0.8315171301364899, -0.3939216360449791, 0.7150012105703354, -2.0, -2.0, 0.5, -2.0, -2.0, 0.9007050693035126, -2.0, 1.0160183310508728, -2.0, -2.0, 1.1704384684562683, -2.0, -2.0, 0.5, 0.4754297584295273, -2.0, 0.6349847242236137, -0.3939216360449791, -2.0, -2.0, -2.0, -0.5975267216563225, -2.0, 2.172351598739624, -0.7949151024222374, -2.0, -2.0, -2.0, -0.9685463309288025, 0.14813633263111115, -0.8011318147182465, 0.5868635475635529, -1.2083420157432556, -2.0, -0.6410097032785416, -2.0, -2.0, -2.0, -0.6750592589378357, -2.0, -1.1173730790615082, -2.0, -2.0, -0.6603306829929352, -0.4580930918455124, -2.0, -2.0, -2.0, 0.8817652761936188, 0.013031319715082645, -0.8105636239051819, -0.5975267216563225, 1.6912928223609924, -2.0, -2.0, 0.5235501155257225, -2.0, -2.0, -0.08315658010542393, 1.6176829934120178, -2.0, -2.0, 0.9361888319253922, -2.0, -2.0, 0.6850237548351288, 1.4777836203575134, 1.4293010830879211, -2.0, -2.0, -2.0, 0.10861679911613464, -0.1926310434937477, -2.0, -2.0, -2.0, -0.8497152626514435, -2.0, 0.7928917706012726, -0.3939216360449791, -0.04778118431568146, -2.0, -2.0, -2.0, -2.0, -0.23056621849536896, 0.12272916361689568, -2.0, -0.06708517111837864, -2.0, -2.0, 0.9910871982574463, -0.41755615174770355, -2.0, 1.126258760690689, -2.0, 0.20056065917015076, -2.0, -2.0, -2.0, 2.5040206909179688, 1.7251080870628357, 1.260114073753357, 1.4777836203575134, 1.080762803554535, 0.5, 1.4105892181396484, -2.0, -0.3939216360449791, -2.0, -2.0, -0.29073671624064445, -2.0, -2.0, -0.7488116025924683, -2.0, 0.5, -2.0, -2.0, 0.6600042283535004, -0.09152478724718094, -0.7780733704566956, -2.0, -2.0, -2.0, -2.0, 0.6241038367152214, -1.365417718887329, -2.0, -2.0, 0.29648125171661377, -2.0, 0.5, -2.0, -2.0, 1.4777836203575134, 1.6826810240745544, 0.5, 